digraph Tree {
node [shape=box, style="filled, rounded", color="black", fontname=helvetica] ;
edge [fontname=helvetica] ;
0 [label="inter_time <= 0.839\ngini = 0.246\nsamples = 2187\nvalue = [1888, 182, 52, 65]\nclass = sjf", fillcolor="#e99457"] ;
1 [label="per_request <= -0.862\ngini = 0.157\nsamples = 1747\nvalue = [1602, 58, 36, 51]\nclass = sjf", fillcolor="#e78c4a"] ;
0 -> 1 [labeldistance=2.5, labelangle=45, headlabel="True"] ;
2 [label="file <= 1.065\ngini = 0.37\nsamples = 354\nvalue = [277, 36, 26, 15]\nclass = sjf", fillcolor="#eba069"] ;
1 -> 2 ;
3 [label="sequential <= -1.061\ngini = 0.316\nsamples = 277\nvalue = [227, 23, 19, 8]\nclass = sjf", fillcolor="#ea9a60"] ;
2 -> 3 ;
4 [label="file <= -1.065\ngini = 0.453\nsamples = 56\nvalue = [40, 8, 7, 1]\nclass = sjf", fillcolor="#eeab7b"] ;
3 -> 4 ;
5 [label="requests_byte <= -0.292\ngini = 0.231\nsamples = 15\nvalue = [13, 2, 0, 0]\nclass = sjf", fillcolor="#e99457"] ;
4 -> 5 ;
6 [label="requests_byte <= -0.603\ngini = 0.346\nsamples = 9\nvalue = [7, 2, 0, 0]\nclass = sjf", fillcolor="#eca572"] ;
5 -> 6 ;
7 [label="gini = 0.0\nsamples = 5\nvalue = [5, 0, 0, 0]\nclass = sjf", fillcolor="#e58139"] ;
6 -> 7 ;
8 [label="inter_time <= -0.567\ngini = 0.5\nsamples = 4\nvalue = [2, 2, 0, 0]\nclass = sjf", fillcolor="#ffffff"] ;
6 -> 8 ;
9 [label="gini = 0.0\nsamples = 1\nvalue = [1, 0, 0, 0]\nclass = sjf", fillcolor="#e58139"] ;
8 -> 9 ;
10 [label="inter_time <= -0.555\ngini = 0.444\nsamples = 3\nvalue = [1, 2, 0, 0]\nclass = to", fillcolor="#a3f29c"] ;
8 -> 10 ;
11 [label="gini = 0.0\nsamples = 1\nvalue = [0, 1, 0, 0]\nclass = to", fillcolor="#47e539"] ;
10 -> 11 ;
12 [label="inter_time <= -0.428\ngini = 0.5\nsamples = 2\nvalue = [1, 1, 0, 0]\nclass = sjf", fillcolor="#ffffff"] ;
10 -> 12 ;
13 [label="gini = 0.0\nsamples = 1\nvalue = [1, 0, 0, 0]\nclass = sjf", fillcolor="#e58139"] ;
12 -> 13 ;
14 [label="gini = 0.0\nsamples = 1\nvalue = [0, 1, 0, 0]\nclass = to", fillcolor="#47e539"] ;
12 -> 14 ;
15 [label="gini = 0.0\nsamples = 6\nvalue = [6, 0, 0, 0]\nclass = sjf", fillcolor="#e58139"] ;
5 -> 15 ;
16 [label="inter_time <= -0.555\ngini = 0.515\nsamples = 41\nvalue = [27, 6, 7, 1]\nclass = sjf", fillcolor="#f0b58b"] ;
4 -> 16 ;
17 [label="inter_time <= -0.567\ngini = 0.609\nsamples = 19\nvalue = [10, 4, 5, 0]\nclass = sjf", fillcolor="#f6d2b8"] ;
16 -> 17 ;
18 [label="requests_byte <= -0.68\ngini = 0.42\nsamples = 10\nvalue = [7, 0, 3, 0]\nclass = sjf", fillcolor="#f0b78e"] ;
17 -> 18 ;
19 [label="gini = 0.0\nsamples = 1\nvalue = [0, 0, 1, 0]\nclass = twins", fillcolor="#399de5"] ;
18 -> 19 ;
20 [label="file <= -0.456\ngini = 0.346\nsamples = 9\nvalue = [7, 0, 2, 0]\nclass = sjf", fillcolor="#eca572"] ;
18 -> 20 ;
21 [label="requests_byte <= -0.603\ngini = 0.5\nsamples = 4\nvalue = [2, 0, 2, 0]\nclass = sjf", fillcolor="#ffffff"] ;
20 -> 21 ;
22 [label="gini = 0.0\nsamples = 1\nvalue = [1, 0, 0, 0]\nclass = sjf", fillcolor="#e58139"] ;
21 -> 22 ;
23 [label="requests_byte <= -0.292\ngini = 0.444\nsamples = 3\nvalue = [1, 0, 2, 0]\nclass = twins", fillcolor="#9ccef2"] ;
21 -> 23 ;
24 [label="gini = 0.0\nsamples = 1\nvalue = [0, 0, 1, 0]\nclass = twins", fillcolor="#399de5"] ;
23 -> 24 ;
25 [label="requests_byte <= 0.95\ngini = 0.5\nsamples = 2\nvalue = [1, 0, 1, 0]\nclass = sjf", fillcolor="#ffffff"] ;
23 -> 25 ;
26 [label="gini = 0.0\nsamples = 1\nvalue = [1, 0, 0, 0]\nclass = sjf", fillcolor="#e58139"] ;
25 -> 26 ;
27 [label="gini = 0.0\nsamples = 1\nvalue = [0, 0, 1, 0]\nclass = twins", fillcolor="#399de5"] ;
25 -> 27 ;
28 [label="gini = 0.0\nsamples = 5\nvalue = [5, 0, 0, 0]\nclass = sjf", fillcolor="#e58139"] ;
20 -> 28 ;
29 [label="requests_byte <= 0.95\ngini = 0.642\nsamples = 9\nvalue = [3, 4, 2, 0]\nclass = to", fillcolor="#e0fbde"] ;
17 -> 29 ;
30 [label="file <= 0.304\ngini = 0.594\nsamples = 8\nvalue = [3, 4, 1, 0]\nclass = to", fillcolor="#dafad7"] ;
29 -> 30 ;
31 [label="requests_byte <= -0.68\ngini = 0.444\nsamples = 6\nvalue = [2, 4, 0, 0]\nclass = to", fillcolor="#a3f29c"] ;
30 -> 31 ;
32 [label="gini = 0.0\nsamples = 1\nvalue = [0, 1, 0, 0]\nclass = to", fillcolor="#47e539"] ;
31 -> 32 ;
33 [label="requests_byte <= -0.603\ngini = 0.48\nsamples = 5\nvalue = [2, 3, 0, 0]\nclass = to", fillcolor="#c2f6bd"] ;
31 -> 33 ;
34 [label="file <= -0.456\ngini = 0.5\nsamples = 2\nvalue = [1, 1, 0, 0]\nclass = sjf", fillcolor="#ffffff"] ;
33 -> 34 ;
35 [label="gini = 0.0\nsamples = 1\nvalue = [1, 0, 0, 0]\nclass = sjf", fillcolor="#e58139"] ;
34 -> 35 ;
36 [label="gini = 0.0\nsamples = 1\nvalue = [0, 1, 0, 0]\nclass = to", fillcolor="#47e539"] ;
34 -> 36 ;
37 [label="file <= -0.456\ngini = 0.444\nsamples = 3\nvalue = [1, 2, 0, 0]\nclass = to", fillcolor="#a3f29c"] ;
33 -> 37 ;
38 [label="gini = 0.0\nsamples = 2\nvalue = [0, 2, 0, 0]\nclass = to", fillcolor="#47e539"] ;
37 -> 38 ;
39 [label="gini = 0.0\nsamples = 1\nvalue = [1, 0, 0, 0]\nclass = sjf", fillcolor="#e58139"] ;
37 -> 39 ;
40 [label="requests_byte <= -0.603\ngini = 0.5\nsamples = 2\nvalue = [1, 0, 1, 0]\nclass = sjf", fillcolor="#ffffff"] ;
30 -> 40 ;
41 [label="gini = 0.0\nsamples = 1\nvalue = [1, 0, 0, 0]\nclass = sjf", fillcolor="#e58139"] ;
40 -> 41 ;
42 [label="gini = 0.0\nsamples = 1\nvalue = [0, 0, 1, 0]\nclass = twins", fillcolor="#399de5"] ;
40 -> 42 ;
43 [label="gini = 0.0\nsamples = 1\nvalue = [0, 0, 1, 0]\nclass = twins", fillcolor="#399de5"] ;
29 -> 43 ;
44 [label="requests_byte <= 0.95\ngini = 0.384\nsamples = 22\nvalue = [17, 2, 2, 1]\nclass = sjf", fillcolor="#eca06a"] ;
16 -> 44 ;
45 [label="file <= 0.304\ngini = 0.296\nsamples = 18\nvalue = [15, 1, 1, 1]\nclass = sjf", fillcolor="#ea975c"] ;
44 -> 45 ;
46 [label="inter_time <= -0.428\ngini = 0.165\nsamples = 11\nvalue = [10, 1, 0, 0]\nclass = sjf", fillcolor="#e88e4d"] ;
45 -> 46 ;
47 [label="requests_byte <= -0.603\ngini = 0.375\nsamples = 4\nvalue = [3, 1, 0, 0]\nclass = sjf", fillcolor="#eeab7b"] ;
46 -> 47 ;
48 [label="gini = 0.0\nsamples = 2\nvalue = [2, 0, 0, 0]\nclass = sjf", fillcolor="#e58139"] ;
47 -> 48 ;
49 [label="requests_byte <= -0.292\ngini = 0.5\nsamples = 2\nvalue = [1, 1, 0, 0]\nclass = sjf", fillcolor="#ffffff"] ;
47 -> 49 ;
50 [label="gini = 0.0\nsamples = 1\nvalue = [0, 1, 0, 0]\nclass = to", fillcolor="#47e539"] ;
49 -> 50 ;
51 [label="gini = 0.0\nsamples = 1\nvalue = [1, 0, 0, 0]\nclass = sjf", fillcolor="#e58139"] ;
49 -> 51 ;
52 [label="gini = 0.0\nsamples = 7\nvalue = [7, 0, 0, 0]\nclass = sjf", fillcolor="#e58139"] ;
46 -> 52 ;
53 [label="inter_time <= -0.428\ngini = 0.449\nsamples = 7\nvalue = [5, 0, 1, 1]\nclass = sjf", fillcolor="#eeab7b"] ;
45 -> 53 ;
54 [label="gini = 0.0\nsamples = 4\nvalue = [4, 0, 0, 0]\nclass = sjf", fillcolor="#e58139"] ;
53 -> 54 ;
55 [label="requests_byte <= -0.68\ngini = 0.667\nsamples = 3\nvalue = [1, 0, 1, 1]\nclass = sjf", fillcolor="#ffffff"] ;
53 -> 55 ;
56 [label="gini = 0.0\nsamples = 1\nvalue = [0, 0, 0, 1]\nclass = mlf", fillcolor="#d739e5"] ;
55 -> 56 ;
57 [label="requests_byte <= -0.603\ngini = 0.5\nsamples = 2\nvalue = [1, 0, 1, 0]\nclass = sjf", fillcolor="#ffffff"] ;
55 -> 57 ;
58 [label="gini = 0.0\nsamples = 1\nvalue = [1, 0, 0, 0]\nclass = sjf", fillcolor="#e58139"] ;
57 -> 58 ;
59 [label="gini = 0.0\nsamples = 1\nvalue = [0, 0, 1, 0]\nclass = twins", fillcolor="#399de5"] ;
57 -> 59 ;
60 [label="file <= -0.456\ngini = 0.625\nsamples = 4\nvalue = [2, 1, 1, 0]\nclass = sjf", fillcolor="#f6d5bd"] ;
44 -> 60 ;
61 [label="inter_time <= -0.428\ngini = 0.5\nsamples = 2\nvalue = [0, 1, 1, 0]\nclass = to", fillcolor="#ffffff"] ;
60 -> 61 ;
62 [label="gini = 0.0\nsamples = 1\nvalue = [0, 1, 0, 0]\nclass = to", fillcolor="#47e539"] ;
61 -> 62 ;
63 [label="gini = 0.0\nsamples = 1\nvalue = [0, 0, 1, 0]\nclass = twins", fillcolor="#399de5"] ;
61 -> 63 ;
64 [label="gini = 0.0\nsamples = 2\nvalue = [2, 0, 0, 0]\nclass = sjf", fillcolor="#e58139"] ;
60 -> 64 ;
65 [label="sequential <= 0.354\ngini = 0.275\nsamples = 221\nvalue = [187, 15, 12, 7]\nclass = sjf", fillcolor="#e9965a"] ;
3 -> 65 ;
66 [label="inter_time <= -0.428\ngini = 0.183\nsamples = 112\nvalue = [101, 5, 5, 1]\nclass = sjf", fillcolor="#e88e4d"] ;
65 -> 66 ;
67 [label="requests_byte <= -0.292\ngini = 0.216\nsamples = 85\nvalue = [75, 5, 4, 1]\nclass = sjf", fillcolor="#e89152"] ;
66 -> 67 ;
68 [label="requests_byte <= -0.68\ngini = 0.157\nsamples = 48\nvalue = [44, 2, 1, 1]\nclass = sjf", fillcolor="#e78c4a"] ;
67 -> 68 ;
69 [label="inter_time <= -0.555\ngini = 0.24\nsamples = 15\nvalue = [13, 0, 1, 1]\nclass = sjf", fillcolor="#e99355"] ;
68 -> 69 ;
70 [label="inter_time <= -0.567\ngini = 0.153\nsamples = 12\nvalue = [11, 0, 0, 1]\nclass = sjf", fillcolor="#e78c4b"] ;
69 -> 70 ;
71 [label="gini = 0.0\nsamples = 7\nvalue = [7, 0, 0, 0]\nclass = sjf", fillcolor="#e58139"] ;
70 -> 71 ;
72 [label="file <= -0.609\ngini = 0.32\nsamples = 5\nvalue = [4, 0, 0, 1]\nclass = sjf", fillcolor="#eca06a"] ;
70 -> 72 ;
73 [label="gini = 0.0\nsamples = 2\nvalue = [2, 0, 0, 0]\nclass = sjf", fillcolor="#e58139"] ;
72 -> 73 ;
74 [label="sequential <= -0.354\ngini = 0.444\nsamples = 3\nvalue = [2, 0, 0, 1]\nclass = sjf", fillcolor="#f2c09c"] ;
72 -> 74 ;
75 [label="file <= 0.304\ngini = 0.5\nsamples = 2\nvalue = [1, 0, 0, 1]\nclass = sjf", fillcolor="#ffffff"] ;
74 -> 75 ;
76 [label="gini = 0.0\nsamples = 1\nvalue = [0, 0, 0, 1]\nclass = mlf", fillcolor="#d739e5"] ;
75 -> 76 ;
77 [label="gini = 0.0\nsamples = 1\nvalue = [1, 0, 0, 0]\nclass = sjf", fillcolor="#e58139"] ;
75 -> 77 ;
78 [label="gini = 0.0\nsamples = 1\nvalue = [1, 0, 0, 0]\nclass = sjf", fillcolor="#e58139"] ;
74 -> 78 ;
79 [label="sequential <= -0.354\ngini = 0.444\nsamples = 3\nvalue = [2, 0, 1, 0]\nclass = sjf", fillcolor="#f2c09c"] ;
69 -> 79 ;
80 [label="gini = 0.0\nsamples = 2\nvalue = [2, 0, 0, 0]\nclass = sjf", fillcolor="#e58139"] ;
79 -> 80 ;
81 [label="gini = 0.0\nsamples = 1\nvalue = [0, 0, 1, 0]\nclass = twins", fillcolor="#399de5"] ;
79 -> 81 ;
82 [label="inter_time <= -0.555\ngini = 0.114\nsamples = 33\nvalue = [31, 2, 0, 0]\nclass = sjf", fillcolor="#e78946"] ;
68 -> 82 ;
83 [label="file <= -1.065\ngini = 0.165\nsamples = 22\nvalue = [20, 2, 0, 0]\nclass = sjf", fillcolor="#e88e4d"] ;
82 -> 83 ;
84 [label="requests_byte <= -0.603\ngini = 0.278\nsamples = 6\nvalue = [5, 1, 0, 0]\nclass = sjf", fillcolor="#ea9a61"] ;
83 -> 84 ;
85 [label="gini = 0.0\nsamples = 3\nvalue = [3, 0, 0, 0]\nclass = sjf", fillcolor="#e58139"] ;
84 -> 85 ;
86 [label="inter_time <= -0.567\ngini = 0.444\nsamples = 3\nvalue = [2, 1, 0, 0]\nclass = sjf", fillcolor="#f2c09c"] ;
84 -> 86 ;
87 [label="gini = 0.0\nsamples = 2\nvalue = [2, 0, 0, 0]\nclass = sjf", fillcolor="#e58139"] ;
86 -> 87 ;
88 [label="gini = 0.0\nsamples = 1\nvalue = [0, 1, 0, 0]\nclass = to", fillcolor="#47e539"] ;
86 -> 88 ;
89 [label="sequential <= -0.354\ngini = 0.117\nsamples = 16\nvalue = [15, 1, 0, 0]\nclass = sjf", fillcolor="#e78946"] ;
83 -> 89 ;
90 [label="gini = 0.0\nsamples = 9\nvalue = [9, 0, 0, 0]\nclass = sjf", fillcolor="#e58139"] ;
89 -> 90 ;
91 [label="file <= 0.304\ngini = 0.245\nsamples = 7\nvalue = [6, 1, 0, 0]\nclass = sjf", fillcolor="#e9965a"] ;
89 -> 91 ;
92 [label="gini = 0.0\nsamples = 4\nvalue = [4, 0, 0, 0]\nclass = sjf", fillcolor="#e58139"] ;
91 -> 92 ;
93 [label="inter_time <= -0.567\ngini = 0.444\nsamples = 3\nvalue = [2, 1, 0, 0]\nclass = sjf", fillcolor="#f2c09c"] ;
91 -> 93 ;
94 [label="requests_byte <= -0.603\ngini = 0.5\nsamples = 2\nvalue = [1, 1, 0, 0]\nclass = sjf", fillcolor="#ffffff"] ;
93 -> 94 ;
95 [label="gini = 0.0\nsamples = 1\nvalue = [0, 1, 0, 0]\nclass = to", fillcolor="#47e539"] ;
94 -> 95 ;
96 [label="gini = 0.0\nsamples = 1\nvalue = [1, 0, 0, 0]\nclass = sjf", fillcolor="#e58139"] ;
94 -> 96 ;
97 [label="gini = 0.0\nsamples = 1\nvalue = [1, 0, 0, 0]\nclass = sjf", fillcolor="#e58139"] ;
93 -> 97 ;
98 [label="gini = 0.0\nsamples = 11\nvalue = [11, 0, 0, 0]\nclass = sjf", fillcolor="#e58139"] ;
82 -> 98 ;
99 [label="inter_time <= -0.567\ngini = 0.285\nsamples = 37\nvalue = [31, 3, 3, 0]\nclass = sjf", fillcolor="#ea975c"] ;
67 -> 99 ;
100 [label="file <= -1.065\ngini = 0.165\nsamples = 11\nvalue = [10, 0, 1, 0]\nclass = sjf", fillcolor="#e88e4d"] ;
99 -> 100 ;
101 [label="requests_byte <= 0.95\ngini = 0.444\nsamples = 3\nvalue = [2, 0, 1, 0]\nclass = sjf", fillcolor="#f2c09c"] ;
100 -> 101 ;
102 [label="gini = 0.0\nsamples = 1\nvalue = [0, 0, 1, 0]\nclass = twins", fillcolor="#399de5"] ;
101 -> 102 ;
103 [label="gini = 0.0\nsamples = 2\nvalue = [2, 0, 0, 0]\nclass = sjf", fillcolor="#e58139"] ;
101 -> 103 ;
104 [label="gini = 0.0\nsamples = 8\nvalue = [8, 0, 0, 0]\nclass = sjf", fillcolor="#e58139"] ;
100 -> 104 ;
105 [label="requests_byte <= 0.95\ngini = 0.328\nsamples = 26\nvalue = [21, 3, 2, 0]\nclass = sjf", fillcolor="#eb9c64"] ;
99 -> 105 ;
106 [label="sequential <= -0.354\ngini = 0.26\nsamples = 13\nvalue = [11, 2, 0, 0]\nclass = sjf", fillcolor="#ea985d"] ;
105 -> 106 ;
107 [label="gini = 0.0\nsamples = 6\nvalue = [6, 0, 0, 0]\nclass = sjf", fillcolor="#e58139"] ;
106 -> 107 ;
108 [label="file <= -0.456\ngini = 0.408\nsamples = 7\nvalue = [5, 2, 0, 0]\nclass = sjf", fillcolor="#efb388"] ;
106 -> 108 ;
109 [label="gini = 0.0\nsamples = 4\nvalue = [4, 0, 0, 0]\nclass = sjf", fillcolor="#e58139"] ;
108 -> 109 ;
110 [label="file <= 0.304\ngini = 0.444\nsamples = 3\nvalue = [1, 2, 0, 0]\nclass = to", fillcolor="#a3f29c"] ;
108 -> 110 ;
111 [label="gini = 0.0\nsamples = 1\nvalue = [0, 1, 0, 0]\nclass = to", fillcolor="#47e539"] ;
110 -> 111 ;
112 [label="inter_time <= -0.555\ngini = 0.5\nsamples = 2\nvalue = [1, 1, 0, 0]\nclass = sjf", fillcolor="#ffffff"] ;
110 -> 112 ;
113 [label="gini = 0.0\nsamples = 1\nvalue = [1, 0, 0, 0]\nclass = sjf", fillcolor="#e58139"] ;
112 -> 113 ;
114 [label="gini = 0.0\nsamples = 1\nvalue = [0, 1, 0, 0]\nclass = to", fillcolor="#47e539"] ;
112 -> 114 ;
115 [label="file <= -1.065\ngini = 0.379\nsamples = 13\nvalue = [10, 1, 2, 0]\nclass = sjf", fillcolor="#eca36f"] ;
105 -> 115 ;
116 [label="inter_time <= -0.555\ngini = 0.375\nsamples = 4\nvalue = [3, 1, 0, 0]\nclass = sjf", fillcolor="#eeab7b"] ;
115 -> 116 ;
117 [label="sequential <= -0.354\ngini = 0.5\nsamples = 2\nvalue = [1, 1, 0, 0]\nclass = sjf", fillcolor="#ffffff"] ;
116 -> 117 ;
118 [label="gini = 0.0\nsamples = 1\nvalue = [0, 1, 0, 0]\nclass = to", fillcolor="#47e539"] ;
117 -> 118 ;
119 [label="gini = 0.0\nsamples = 1\nvalue = [1, 0, 0, 0]\nclass = sjf", fillcolor="#e58139"] ;
117 -> 119 ;
120 [label="gini = 0.0\nsamples = 2\nvalue = [2, 0, 0, 0]\nclass = sjf", fillcolor="#e58139"] ;
116 -> 120 ;
121 [label="file <= -0.456\ngini = 0.346\nsamples = 9\nvalue = [7, 0, 2, 0]\nclass = sjf", fillcolor="#eca572"] ;
115 -> 121 ;
122 [label="sequential <= -0.354\ngini = 0.5\nsamples = 2\nvalue = [1, 0, 1, 0]\nclass = sjf", fillcolor="#ffffff"] ;
121 -> 122 ;
123 [label="gini = 0.0\nsamples = 1\nvalue = [0, 0, 1, 0]\nclass = twins", fillcolor="#399de5"] ;
122 -> 123 ;
124 [label="gini = 0.0\nsamples = 1\nvalue = [1, 0, 0, 0]\nclass = sjf", fillcolor="#e58139"] ;
122 -> 124 ;
125 [label="sequential <= -0.354\ngini = 0.245\nsamples = 7\nvalue = [6, 0, 1, 0]\nclass = sjf", fillcolor="#e9965a"] ;
121 -> 125 ;
126 [label="gini = 0.0\nsamples = 4\nvalue = [4, 0, 0, 0]\nclass = sjf", fillcolor="#e58139"] ;
125 -> 126 ;
127 [label="inter_time <= -0.555\ngini = 0.444\nsamples = 3\nvalue = [2, 0, 1, 0]\nclass = sjf", fillcolor="#f2c09c"] ;
125 -> 127 ;
128 [label="gini = 0.0\nsamples = 2\nvalue = [2, 0, 0, 0]\nclass = sjf", fillcolor="#e58139"] ;
127 -> 128 ;
129 [label="gini = 0.0\nsamples = 1\nvalue = [0, 0, 1, 0]\nclass = twins", fillcolor="#399de5"] ;
127 -> 129 ;
130 [label="requests_byte <= -0.68\ngini = 0.071\nsamples = 27\nvalue = [26, 0, 1, 0]\nclass = sjf", fillcolor="#e68641"] ;
66 -> 130 ;
131 [label="file <= -0.456\ngini = 0.245\nsamples = 7\nvalue = [6, 0, 1, 0]\nclass = sjf", fillcolor="#e9965a"] ;
130 -> 131 ;
132 [label="file <= -1.065\ngini = 0.375\nsamples = 4\nvalue = [3, 0, 1, 0]\nclass = sjf", fillcolor="#eeab7b"] ;
131 -> 132 ;
133 [label="gini = 0.0\nsamples = 2\nvalue = [2, 0, 0, 0]\nclass = sjf", fillcolor="#e58139"] ;
132 -> 133 ;
134 [label="sequential <= -0.354\ngini = 0.5\nsamples = 2\nvalue = [1, 0, 1, 0]\nclass = sjf", fillcolor="#ffffff"] ;
132 -> 134 ;
135 [label="gini = 0.0\nsamples = 1\nvalue = [1, 0, 0, 0]\nclass = sjf", fillcolor="#e58139"] ;
134 -> 135 ;
136 [label="gini = 0.0\nsamples = 1\nvalue = [0, 0, 1, 0]\nclass = twins", fillcolor="#399de5"] ;
134 -> 136 ;
137 [label="gini = 0.0\nsamples = 3\nvalue = [3, 0, 0, 0]\nclass = sjf", fillcolor="#e58139"] ;
131 -> 137 ;
138 [label="gini = 0.0\nsamples = 20\nvalue = [20, 0, 0, 0]\nclass = sjf", fillcolor="#e58139"] ;
130 -> 138 ;
139 [label="file <= -0.456\ngini = 0.362\nsamples = 109\nvalue = [86, 10, 7, 6]\nclass = sjf", fillcolor="#eb9e67"] ;
65 -> 139 ;
140 [label="inter_time <= -0.428\ngini = 0.233\nsamples = 54\nvalue = [47, 2, 5, 0]\nclass = sjf", fillcolor="#e99355"] ;
139 -> 140 ;
141 [label="requests_byte <= -0.603\ngini = 0.152\nsamples = 37\nvalue = [34, 1, 2, 0]\nclass = sjf", fillcolor="#e78c4a"] ;
140 -> 141 ;
142 [label="inter_time <= -0.567\ngini = 0.338\nsamples = 15\nvalue = [12, 1, 2, 0]\nclass = sjf", fillcolor="#eb9e67"] ;
141 -> 142 ;
143 [label="sequential <= 1.061\ngini = 0.444\nsamples = 6\nvalue = [4, 0, 2, 0]\nclass = sjf", fillcolor="#f2c09c"] ;
142 -> 143 ;
144 [label="gini = 0.0\nsamples = 3\nvalue = [3, 0, 0, 0]\nclass = sjf", fillcolor="#e58139"] ;
143 -> 144 ;
145 [label="file <= -1.065\ngini = 0.444\nsamples = 3\nvalue = [1, 0, 2, 0]\nclass = twins", fillcolor="#9ccef2"] ;
143 -> 145 ;
146 [label="gini = 0.0\nsamples = 1\nvalue = [1, 0, 0, 0]\nclass = sjf", fillcolor="#e58139"] ;
145 -> 146 ;
147 [label="gini = 0.0\nsamples = 2\nvalue = [0, 0, 2, 0]\nclass = twins", fillcolor="#399de5"] ;
145 -> 147 ;
148 [label="requests_byte <= -0.68\ngini = 0.198\nsamples = 9\nvalue = [8, 1, 0, 0]\nclass = sjf", fillcolor="#e89152"] ;
142 -> 148 ;
149 [label="file <= -1.065\ngini = 0.32\nsamples = 5\nvalue = [4, 1, 0, 0]\nclass = sjf", fillcolor="#eca06a"] ;
148 -> 149 ;
150 [label="sequential <= 1.061\ngini = 0.5\nsamples = 2\nvalue = [1, 1, 0, 0]\nclass = sjf", fillcolor="#ffffff"] ;
149 -> 150 ;
151 [label="gini = 0.0\nsamples = 1\nvalue = [0, 1, 0, 0]\nclass = to", fillcolor="#47e539"] ;
150 -> 151 ;
152 [label="gini = 0.0\nsamples = 1\nvalue = [1, 0, 0, 0]\nclass = sjf", fillcolor="#e58139"] ;
150 -> 152 ;
153 [label="gini = 0.0\nsamples = 3\nvalue = [3, 0, 0, 0]\nclass = sjf", fillcolor="#e58139"] ;
149 -> 153 ;
154 [label="gini = 0.0\nsamples = 4\nvalue = [4, 0, 0, 0]\nclass = sjf", fillcolor="#e58139"] ;
148 -> 154 ;
155 [label="gini = 0.0\nsamples = 22\nvalue = [22, 0, 0, 0]\nclass = sjf", fillcolor="#e58139"] ;
141 -> 155 ;
156 [label="requests_byte <= -0.292\ngini = 0.381\nsamples = 17\nvalue = [13, 1, 3, 0]\nclass = sjf", fillcolor="#eca572"] ;
140 -> 156 ;
157 [label="requests_byte <= -0.603\ngini = 0.153\nsamples = 12\nvalue = [11, 1, 0, 0]\nclass = sjf", fillcolor="#e78c4b"] ;
156 -> 157 ;
158 [label="gini = 0.0\nsamples = 8\nvalue = [8, 0, 0, 0]\nclass = sjf", fillcolor="#e58139"] ;
157 -> 158 ;
159 [label="sequential <= 1.061\ngini = 0.375\nsamples = 4\nvalue = [3, 1, 0, 0]\nclass = sjf", fillcolor="#eeab7b"] ;
157 -> 159 ;
160 [label="file <= -1.065\ngini = 0.5\nsamples = 2\nvalue = [1, 1, 0, 0]\nclass = sjf", fillcolor="#ffffff"] ;
159 -> 160 ;
161 [label="gini = 0.0\nsamples = 1\nvalue = [0, 1, 0, 0]\nclass = to", fillcolor="#47e539"] ;
160 -> 161 ;
162 [label="gini = 0.0\nsamples = 1\nvalue = [1, 0, 0, 0]\nclass = sjf", fillcolor="#e58139"] ;
160 -> 162 ;
163 [label="gini = 0.0\nsamples = 2\nvalue = [2, 0, 0, 0]\nclass = sjf", fillcolor="#e58139"] ;
159 -> 163 ;
164 [label="requests_byte <= 0.95\ngini = 0.48\nsamples = 5\nvalue = [2, 0, 3, 0]\nclass = twins", fillcolor="#bddef6"] ;
156 -> 164 ;
165 [label="gini = 0.0\nsamples = 3\nvalue = [0, 0, 3, 0]\nclass = twins", fillcolor="#399de5"] ;
164 -> 165 ;
166 [label="gini = 0.0\nsamples = 2\nvalue = [2, 0, 0, 0]\nclass = sjf", fillcolor="#e58139"] ;
164 -> 166 ;
167 [label="inter_time <= -0.555\ngini = 0.463\nsamples = 55\nvalue = [39, 8, 2, 6]\nclass = sjf", fillcolor="#eeac7c"] ;
139 -> 167 ;
168 [label="requests_byte <= -0.68\ngini = 0.269\nsamples = 26\nvalue = [22, 0, 1, 3]\nclass = sjf", fillcolor="#ea975b"] ;
167 -> 168 ;
169 [label="file <= 0.304\ngini = 0.625\nsamples = 4\nvalue = [2, 0, 1, 1]\nclass = sjf", fillcolor="#f6d5bd"] ;
168 -> 169 ;
170 [label="sequential <= 1.061\ngini = 0.444\nsamples = 3\nvalue = [2, 0, 0, 1]\nclass = sjf", fillcolor="#f2c09c"] ;
169 -> 170 ;
171 [label="inter_time <= -0.567\ngini = 0.5\nsamples = 2\nvalue = [1, 0, 0, 1]\nclass = sjf", fillcolor="#ffffff"] ;
170 -> 171 ;
172 [label="gini = 0.0\nsamples = 1\nvalue = [1, 0, 0, 0]\nclass = sjf", fillcolor="#e58139"] ;
171 -> 172 ;
173 [label="gini = 0.0\nsamples = 1\nvalue = [0, 0, 0, 1]\nclass = mlf", fillcolor="#d739e5"] ;
171 -> 173 ;
174 [label="gini = 0.0\nsamples = 1\nvalue = [1, 0, 0, 0]\nclass = sjf", fillcolor="#e58139"] ;
170 -> 174 ;
175 [label="gini = 0.0\nsamples = 1\nvalue = [0, 0, 1, 0]\nclass = twins", fillcolor="#399de5"] ;
169 -> 175 ;
176 [label="inter_time <= -0.567\ngini = 0.165\nsamples = 22\nvalue = [20, 0, 0, 2]\nclass = sjf", fillcolor="#e88e4d"] ;
168 -> 176 ;
177 [label="gini = 0.0\nsamples = 10\nvalue = [10, 0, 0, 0]\nclass = sjf", fillcolor="#e58139"] ;
176 -> 177 ;
178 [label="requests_byte <= -0.603\ngini = 0.278\nsamples = 12\nvalue = [10, 0, 0, 2]\nclass = sjf", fillcolor="#ea9a61"] ;
176 -> 178 ;
179 [label="file <= 0.304\ngini = 0.444\nsamples = 3\nvalue = [2, 0, 0, 1]\nclass = sjf", fillcolor="#f2c09c"] ;
178 -> 179 ;
180 [label="gini = 0.0\nsamples = 1\nvalue = [1, 0, 0, 0]\nclass = sjf", fillcolor="#e58139"] ;
179 -> 180 ;
181 [label="sequential <= 1.061\ngini = 0.5\nsamples = 2\nvalue = [1, 0, 0, 1]\nclass = sjf", fillcolor="#ffffff"] ;
179 -> 181 ;
182 [label="gini = 0.0\nsamples = 1\nvalue = [0, 0, 0, 1]\nclass = mlf", fillcolor="#d739e5"] ;
181 -> 182 ;
183 [label="gini = 0.0\nsamples = 1\nvalue = [1, 0, 0, 0]\nclass = sjf", fillcolor="#e58139"] ;
181 -> 183 ;
184 [label="file <= 0.304\ngini = 0.198\nsamples = 9\nvalue = [8, 0, 0, 1]\nclass = sjf", fillcolor="#e89152"] ;
178 -> 184 ;
185 [label="sequential <= 1.061\ngini = 0.375\nsamples = 4\nvalue = [3, 0, 0, 1]\nclass = sjf", fillcolor="#eeab7b"] ;
184 -> 185 ;
186 [label="gini = 0.0\nsamples = 2\nvalue = [2, 0, 0, 0]\nclass = sjf", fillcolor="#e58139"] ;
185 -> 186 ;
187 [label="requests_byte <= -0.292\ngini = 0.5\nsamples = 2\nvalue = [1, 0, 0, 1]\nclass = sjf", fillcolor="#ffffff"] ;
185 -> 187 ;
188 [label="gini = 0.0\nsamples = 1\nvalue = [1, 0, 0, 0]\nclass = sjf", fillcolor="#e58139"] ;
187 -> 188 ;
189 [label="gini = 0.0\nsamples = 1\nvalue = [0, 0, 0, 1]\nclass = mlf", fillcolor="#d739e5"] ;
187 -> 189 ;
190 [label="gini = 0.0\nsamples = 5\nvalue = [5, 0, 0, 0]\nclass = sjf", fillcolor="#e58139"] ;
184 -> 190 ;
191 [label="inter_time <= -0.428\ngini = 0.568\nsamples = 29\nvalue = [17, 8, 1, 3]\nclass = sjf", fillcolor="#f4c9aa"] ;
167 -> 191 ;
192 [label="requests_byte <= 0.95\ngini = 0.684\nsamples = 14\nvalue = [6, 4, 1, 3]\nclass = sjf", fillcolor="#fae6d7"] ;
191 -> 192 ;
193 [label="file <= 0.304\ngini = 0.711\nsamples = 11\nvalue = [3, 4, 1, 3]\nclass = to", fillcolor="#e8fce6"] ;
192 -> 193 ;
194 [label="requests_byte <= -0.68\ngini = 0.625\nsamples = 4\nvalue = [2, 1, 1, 0]\nclass = sjf", fillcolor="#f6d5bd"] ;
193 -> 194 ;
195 [label="gini = 0.0\nsamples = 1\nvalue = [0, 1, 0, 0]\nclass = to", fillcolor="#47e539"] ;
194 -> 195 ;
196 [label="sequential <= 1.061\ngini = 0.444\nsamples = 3\nvalue = [2, 0, 1, 0]\nclass = sjf", fillcolor="#f2c09c"] ;
194 -> 196 ;
197 [label="requests_byte <= -0.603\ngini = 0.5\nsamples = 2\nvalue = [1, 0, 1, 0]\nclass = sjf", fillcolor="#ffffff"] ;
196 -> 197 ;
198 [label="gini = 0.0\nsamples = 1\nvalue = [1, 0, 0, 0]\nclass = sjf", fillcolor="#e58139"] ;
197 -> 198 ;
199 [label="gini = 0.0\nsamples = 1\nvalue = [0, 0, 1, 0]\nclass = twins", fillcolor="#399de5"] ;
197 -> 199 ;
200 [label="gini = 0.0\nsamples = 1\nvalue = [1, 0, 0, 0]\nclass = sjf", fillcolor="#e58139"] ;
196 -> 200 ;
201 [label="requests_byte <= -0.292\ngini = 0.612\nsamples = 7\nvalue = [1, 3, 0, 3]\nclass = to", fillcolor="#ffffff"] ;
193 -> 201 ;
202 [label="sequential <= 1.061\ngini = 0.48\nsamples = 5\nvalue = [0, 2, 0, 3]\nclass = mlf", fillcolor="#f2bdf6"] ;
201 -> 202 ;
203 [label="requests_byte <= -0.68\ngini = 0.444\nsamples = 3\nvalue = [0, 1, 0, 2]\nclass = mlf", fillcolor="#eb9cf2"] ;
202 -> 203 ;
204 [label="gini = 0.0\nsamples = 1\nvalue = [0, 1, 0, 0]\nclass = to", fillcolor="#47e539"] ;
203 -> 204 ;
205 [label="gini = 0.0\nsamples = 2\nvalue = [0, 0, 0, 2]\nclass = mlf", fillcolor="#d739e5"] ;
203 -> 205 ;
206 [label="requests_byte <= -0.618\ngini = 0.5\nsamples = 2\nvalue = [0, 1, 0, 1]\nclass = to", fillcolor="#ffffff"] ;
202 -> 206 ;
207 [label="gini = 0.0\nsamples = 1\nvalue = [0, 0, 0, 1]\nclass = mlf", fillcolor="#d739e5"] ;
206 -> 207 ;
208 [label="gini = 0.0\nsamples = 1\nvalue = [0, 1, 0, 0]\nclass = to", fillcolor="#47e539"] ;
206 -> 208 ;
209 [label="sequential <= 1.061\ngini = 0.5\nsamples = 2\nvalue = [1, 1, 0, 0]\nclass = sjf", fillcolor="#ffffff"] ;
201 -> 209 ;
210 [label="gini = 0.0\nsamples = 1\nvalue = [1, 0, 0, 0]\nclass = sjf", fillcolor="#e58139"] ;
209 -> 210 ;
211 [label="gini = 0.0\nsamples = 1\nvalue = [0, 1, 0, 0]\nclass = to", fillcolor="#47e539"] ;
209 -> 211 ;
212 [label="gini = 0.0\nsamples = 3\nvalue = [3, 0, 0, 0]\nclass = sjf", fillcolor="#e58139"] ;
192 -> 212 ;
213 [label="file <= 0.304\ngini = 0.391\nsamples = 15\nvalue = [11, 4, 0, 0]\nclass = sjf", fillcolor="#eeaf81"] ;
191 -> 213 ;
214 [label="requests_byte <= -0.603\ngini = 0.469\nsamples = 8\nvalue = [5, 3, 0, 0]\nclass = sjf", fillcolor="#f5cdb0"] ;
213 -> 214 ;
215 [label="gini = 0.0\nsamples = 3\nvalue = [3, 0, 0, 0]\nclass = sjf", fillcolor="#e58139"] ;
214 -> 215 ;
216 [label="requests_byte <= 0.95\ngini = 0.48\nsamples = 5\nvalue = [2, 3, 0, 0]\nclass = to", fillcolor="#c2f6bd"] ;
214 -> 216 ;
217 [label="requests_byte <= -0.292\ngini = 0.5\nsamples = 4\nvalue = [2, 2, 0, 0]\nclass = sjf", fillcolor="#ffffff"] ;
216 -> 217 ;
218 [label="sequential <= 1.061\ngini = 0.5\nsamples = 2\nvalue = [1, 1, 0, 0]\nclass = sjf", fillcolor="#ffffff"] ;
217 -> 218 ;
219 [label="gini = 0.0\nsamples = 1\nvalue = [0, 1, 0, 0]\nclass = to", fillcolor="#47e539"] ;
218 -> 219 ;
220 [label="gini = 0.0\nsamples = 1\nvalue = [1, 0, 0, 0]\nclass = sjf", fillcolor="#e58139"] ;
218 -> 220 ;
221 [label="sequential <= 1.061\ngini = 0.5\nsamples = 2\nvalue = [1, 1, 0, 0]\nclass = sjf", fillcolor="#ffffff"] ;
217 -> 221 ;
222 [label="gini = 0.0\nsamples = 1\nvalue = [1, 0, 0, 0]\nclass = sjf", fillcolor="#e58139"] ;
221 -> 222 ;
223 [label="gini = 0.0\nsamples = 1\nvalue = [0, 1, 0, 0]\nclass = to", fillcolor="#47e539"] ;
221 -> 223 ;
224 [label="gini = 0.0\nsamples = 1\nvalue = [0, 1, 0, 0]\nclass = to", fillcolor="#47e539"] ;
216 -> 224 ;
225 [label="requests_byte <= -0.68\ngini = 0.245\nsamples = 7\nvalue = [6, 1, 0, 0]\nclass = sjf", fillcolor="#e9965a"] ;
213 -> 225 ;
226 [label="sequential <= 1.061\ngini = 0.5\nsamples = 2\nvalue = [1, 1, 0, 0]\nclass = sjf", fillcolor="#ffffff"] ;
225 -> 226 ;
227 [label="gini = 0.0\nsamples = 1\nvalue = [0, 1, 0, 0]\nclass = to", fillcolor="#47e539"] ;
226 -> 227 ;
228 [label="gini = 0.0\nsamples = 1\nvalue = [1, 0, 0, 0]\nclass = sjf", fillcolor="#e58139"] ;
226 -> 228 ;
229 [label="gini = 0.0\nsamples = 5\nvalue = [5, 0, 0, 0]\nclass = sjf", fillcolor="#e58139"] ;
225 -> 229 ;
230 [label="sequential <= -0.354\ngini = 0.533\nsamples = 77\nvalue = [50, 13, 7, 7]\nclass = sjf", fillcolor="#f0b68d"] ;
2 -> 230 ;
231 [label="requests_byte <= 0.95\ngini = 0.649\nsamples = 31\nvalue = [16, 6, 3, 6]\nclass = sjf", fillcolor="#f5cdb0"] ;
230 -> 231 ;
232 [label="inter_time <= -0.567\ngini = 0.589\nsamples = 26\nvalue = [15, 4, 1, 6]\nclass = sjf", fillcolor="#f3c6a6"] ;
231 -> 232 ;
233 [label="requests_byte <= -0.68\ngini = 0.245\nsamples = 7\nvalue = [6, 1, 0, 0]\nclass = sjf", fillcolor="#e9965a"] ;
232 -> 233 ;
234 [label="sequential <= -1.061\ngini = 0.5\nsamples = 2\nvalue = [1, 1, 0, 0]\nclass = sjf", fillcolor="#ffffff"] ;
233 -> 234 ;
235 [label="gini = 0.0\nsamples = 1\nvalue = [1, 0, 0, 0]\nclass = sjf", fillcolor="#e58139"] ;
234 -> 235 ;
236 [label="gini = 0.0\nsamples = 1\nvalue = [0, 1, 0, 0]\nclass = to", fillcolor="#47e539"] ;
234 -> 236 ;
237 [label="gini = 0.0\nsamples = 5\nvalue = [5, 0, 0, 0]\nclass = sjf", fillcolor="#e58139"] ;
233 -> 237 ;
238 [label="sequential <= -1.061\ngini = 0.648\nsamples = 19\nvalue = [9, 3, 1, 6]\nclass = sjf", fillcolor="#f9e2d1"] ;
232 -> 238 ;
239 [label="requests_byte <= -0.292\ngini = 0.494\nsamples = 9\nvalue = [5, 0, 0, 4]\nclass = sjf", fillcolor="#fae6d7"] ;
238 -> 239 ;
240 [label="inter_time <= -0.428\ngini = 0.49\nsamples = 7\nvalue = [3, 0, 0, 4]\nclass = mlf", fillcolor="#f5cef8"] ;
239 -> 240 ;
241 [label="requests_byte <= -0.603\ngini = 0.48\nsamples = 5\nvalue = [3, 0, 0, 2]\nclass = sjf", fillcolor="#f6d5bd"] ;
240 -> 241 ;
242 [label="requests_byte <= -0.68\ngini = 0.5\nsamples = 4\nvalue = [2, 0, 0, 2]\nclass = sjf", fillcolor="#ffffff"] ;
241 -> 242 ;
243 [label="inter_time <= -0.555\ngini = 0.5\nsamples = 2\nvalue = [1, 0, 0, 1]\nclass = sjf", fillcolor="#ffffff"] ;
242 -> 243 ;
244 [label="gini = 0.0\nsamples = 1\nvalue = [0, 0, 0, 1]\nclass = mlf", fillcolor="#d739e5"] ;
243 -> 244 ;
245 [label="gini = 0.0\nsamples = 1\nvalue = [1, 0, 0, 0]\nclass = sjf", fillcolor="#e58139"] ;
243 -> 245 ;
246 [label="inter_time <= -0.555\ngini = 0.5\nsamples = 2\nvalue = [1, 0, 0, 1]\nclass = sjf", fillcolor="#ffffff"] ;
242 -> 246 ;
247 [label="gini = 0.0\nsamples = 1\nvalue = [1, 0, 0, 0]\nclass = sjf", fillcolor="#e58139"] ;
246 -> 247 ;
248 [label="gini = 0.0\nsamples = 1\nvalue = [0, 0, 0, 1]\nclass = mlf", fillcolor="#d739e5"] ;
246 -> 248 ;
249 [label="gini = 0.0\nsamples = 1\nvalue = [1, 0, 0, 0]\nclass = sjf", fillcolor="#e58139"] ;
241 -> 249 ;
250 [label="gini = 0.0\nsamples = 2\nvalue = [0, 0, 0, 2]\nclass = mlf", fillcolor="#d739e5"] ;
240 -> 250 ;
251 [label="gini = 0.0\nsamples = 2\nvalue = [2, 0, 0, 0]\nclass = sjf", fillcolor="#e58139"] ;
239 -> 251 ;
252 [label="requests_byte <= -0.68\ngini = 0.7\nsamples = 10\nvalue = [4, 3, 1, 2]\nclass = sjf", fillcolor="#fbede3"] ;
238 -> 252 ;
253 [label="gini = 0.0\nsamples = 2\nvalue = [2, 0, 0, 0]\nclass = sjf", fillcolor="#e58139"] ;
252 -> 253 ;
254 [label="requests_byte <= -0.292\ngini = 0.719\nsamples = 8\nvalue = [2, 3, 1, 2]\nclass = to", fillcolor="#e0fbde"] ;
252 -> 254 ;
255 [label="requests_byte <= -0.603\ngini = 0.611\nsamples = 6\nvalue = [2, 3, 0, 1]\nclass = to", fillcolor="#d1f8ce"] ;
254 -> 255 ;
256 [label="inter_time <= -0.555\ngini = 0.444\nsamples = 3\nvalue = [0, 2, 0, 1]\nclass = to", fillcolor="#a3f29c"] ;
255 -> 256 ;
257 [label="gini = 0.0\nsamples = 1\nvalue = [0, 0, 0, 1]\nclass = mlf", fillcolor="#d739e5"] ;
256 -> 257 ;
258 [label="gini = 0.0\nsamples = 2\nvalue = [0, 2, 0, 0]\nclass = to", fillcolor="#47e539"] ;
256 -> 258 ;
259 [label="inter_time <= -0.555\ngini = 0.444\nsamples = 3\nvalue = [2, 1, 0, 0]\nclass = sjf", fillcolor="#f2c09c"] ;
255 -> 259 ;
260 [label="gini = 0.0\nsamples = 1\nvalue = [0, 1, 0, 0]\nclass = to", fillcolor="#47e539"] ;
259 -> 260 ;
261 [label="gini = 0.0\nsamples = 2\nvalue = [2, 0, 0, 0]\nclass = sjf", fillcolor="#e58139"] ;
259 -> 261 ;
262 [label="inter_time <= -0.44\ngini = 0.5\nsamples = 2\nvalue = [0, 0, 1, 1]\nclass = twins", fillcolor="#ffffff"] ;
254 -> 262 ;
263 [label="gini = 0.0\nsamples = 1\nvalue = [0, 0, 1, 0]\nclass = twins", fillcolor="#399de5"] ;
262 -> 263 ;
264 [label="gini = 0.0\nsamples = 1\nvalue = [0, 0, 0, 1]\nclass = mlf", fillcolor="#d739e5"] ;
262 -> 264 ;
265 [label="sequential <= -1.061\ngini = 0.64\nsamples = 5\nvalue = [1, 2, 2, 0]\nclass = to", fillcolor="#ffffff"] ;
231 -> 265 ;
266 [label="gini = 0.0\nsamples = 1\nvalue = [0, 1, 0, 0]\nclass = to", fillcolor="#47e539"] ;
265 -> 266 ;
267 [label="inter_time <= -0.428\ngini = 0.625\nsamples = 4\nvalue = [1, 1, 2, 0]\nclass = twins", fillcolor="#bddef6"] ;
265 -> 267 ;
268 [label="inter_time <= -0.567\ngini = 0.444\nsamples = 3\nvalue = [1, 0, 2, 0]\nclass = twins", fillcolor="#9ccef2"] ;
267 -> 268 ;
269 [label="gini = 0.0\nsamples = 1\nvalue = [0, 0, 1, 0]\nclass = twins", fillcolor="#399de5"] ;
268 -> 269 ;
270 [label="inter_time <= -0.555\ngini = 0.5\nsamples = 2\nvalue = [1, 0, 1, 0]\nclass = sjf", fillcolor="#ffffff"] ;
268 -> 270 ;
271 [label="gini = 0.0\nsamples = 1\nvalue = [1, 0, 0, 0]\nclass = sjf", fillcolor="#e58139"] ;
270 -> 271 ;
272 [label="gini = 0.0\nsamples = 1\nvalue = [0, 0, 1, 0]\nclass = twins", fillcolor="#399de5"] ;
270 -> 272 ;
273 [label="gini = 0.0\nsamples = 1\nvalue = [0, 1, 0, 0]\nclass = to", fillcolor="#47e539"] ;
267 -> 273 ;
274 [label="requests_byte <= -0.603\ngini = 0.422\nsamples = 46\nvalue = [34, 7, 4, 1]\nclass = sjf", fillcolor="#eda876"] ;
230 -> 274 ;
275 [label="inter_time <= -0.555\ngini = 0.594\nsamples = 21\nvalue = [12, 5, 3, 1]\nclass = sjf", fillcolor="#f4c8a8"] ;
274 -> 275 ;
276 [label="sequential <= 0.354\ngini = 0.711\nsamples = 11\nvalue = [4, 3, 3, 1]\nclass = sjf", fillcolor="#fcefe6"] ;
275 -> 276 ;
277 [label="inter_time <= -0.567\ngini = 0.444\nsamples = 3\nvalue = [0, 2, 1, 0]\nclass = to", fillcolor="#a3f29c"] ;
276 -> 277 ;
278 [label="gini = 0.0\nsamples = 2\nvalue = [0, 2, 0, 0]\nclass = to", fillcolor="#47e539"] ;
277 -> 278 ;
279 [label="gini = 0.0\nsamples = 1\nvalue = [0, 0, 1, 0]\nclass = twins", fillcolor="#399de5"] ;
277 -> 279 ;
280 [label="requests_byte <= -0.68\ngini = 0.656\nsamples = 8\nvalue = [4, 1, 2, 1]\nclass = sjf", fillcolor="#f6d5bd"] ;
276 -> 280 ;
281 [label="sequential <= 1.061\ngini = 0.625\nsamples = 4\nvalue = [1, 0, 2, 1]\nclass = twins", fillcolor="#bddef6"] ;
280 -> 281 ;
282 [label="inter_time <= -0.567\ngini = 0.5\nsamples = 2\nvalue = [1, 0, 0, 1]\nclass = sjf", fillcolor="#ffffff"] ;
281 -> 282 ;
283 [label="gini = 0.0\nsamples = 1\nvalue = [0, 0, 0, 1]\nclass = mlf", fillcolor="#d739e5"] ;
282 -> 283 ;
284 [label="gini = 0.0\nsamples = 1\nvalue = [1, 0, 0, 0]\nclass = sjf", fillcolor="#e58139"] ;
282 -> 284 ;
285 [label="gini = 0.0\nsamples = 2\nvalue = [0, 0, 2, 0]\nclass = twins", fillcolor="#399de5"] ;
281 -> 285 ;
286 [label="sequential <= 1.061\ngini = 0.375\nsamples = 4\nvalue = [3, 1, 0, 0]\nclass = sjf", fillcolor="#eeab7b"] ;
280 -> 286 ;
287 [label="gini = 0.0\nsamples = 2\nvalue = [2, 0, 0, 0]\nclass = sjf", fillcolor="#e58139"] ;
286 -> 287 ;
288 [label="inter_time <= -0.567\ngini = 0.5\nsamples = 2\nvalue = [1, 1, 0, 0]\nclass = sjf", fillcolor="#ffffff"] ;
286 -> 288 ;
289 [label="gini = 0.0\nsamples = 1\nvalue = [1, 0, 0, 0]\nclass = sjf", fillcolor="#e58139"] ;
288 -> 289 ;
290 [label="gini = 0.0\nsamples = 1\nvalue = [0, 1, 0, 0]\nclass = to", fillcolor="#47e539"] ;
288 -> 290 ;
291 [label="sequential <= 1.061\ngini = 0.32\nsamples = 10\nvalue = [8, 2, 0, 0]\nclass = sjf", fillcolor="#eca06a"] ;
275 -> 291 ;
292 [label="requests_byte <= -0.68\ngini = 0.245\nsamples = 7\nvalue = [6, 1, 0, 0]\nclass = sjf", fillcolor="#e9965a"] ;
291 -> 292 ;
293 [label="sequential <= 0.354\ngini = 0.375\nsamples = 4\nvalue = [3, 1, 0, 0]\nclass = sjf", fillcolor="#eeab7b"] ;
292 -> 293 ;
294 [label="inter_time <= -0.428\ngini = 0.5\nsamples = 2\nvalue = [1, 1, 0, 0]\nclass = sjf", fillcolor="#ffffff"] ;
293 -> 294 ;
295 [label="gini = 0.0\nsamples = 1\nvalue = [0, 1, 0, 0]\nclass = to", fillcolor="#47e539"] ;
294 -> 295 ;
296 [label="gini = 0.0\nsamples = 1\nvalue = [1, 0, 0, 0]\nclass = sjf", fillcolor="#e58139"] ;
294 -> 296 ;
297 [label="gini = 0.0\nsamples = 2\nvalue = [2, 0, 0, 0]\nclass = sjf", fillcolor="#e58139"] ;
293 -> 297 ;
298 [label="gini = 0.0\nsamples = 3\nvalue = [3, 0, 0, 0]\nclass = sjf", fillcolor="#e58139"] ;
292 -> 298 ;
299 [label="inter_time <= -0.428\ngini = 0.444\nsamples = 3\nvalue = [2, 1, 0, 0]\nclass = sjf", fillcolor="#f2c09c"] ;
291 -> 299 ;
300 [label="gini = 0.0\nsamples = 2\nvalue = [2, 0, 0, 0]\nclass = sjf", fillcolor="#e58139"] ;
299 -> 300 ;
301 [label="gini = 0.0\nsamples = 1\nvalue = [0, 1, 0, 0]\nclass = to", fillcolor="#47e539"] ;
299 -> 301 ;
302 [label="inter_time <= -0.567\ngini = 0.218\nsamples = 25\nvalue = [22, 2, 1, 0]\nclass = sjf", fillcolor="#e89153"] ;
274 -> 302 ;
303 [label="sequential <= 1.061\ngini = 0.494\nsamples = 9\nvalue = [6, 2, 1, 0]\nclass = sjf", fillcolor="#f0b78e"] ;
302 -> 303 ;
304 [label="requests_byte <= -0.292\ngini = 0.611\nsamples = 6\nvalue = [3, 2, 1, 0]\nclass = sjf", fillcolor="#f8e0ce"] ;
303 -> 304 ;
305 [label="gini = 0.0\nsamples = 2\nvalue = [2, 0, 0, 0]\nclass = sjf", fillcolor="#e58139"] ;
304 -> 305 ;
306 [label="sequential <= 0.354\ngini = 0.625\nsamples = 4\nvalue = [1, 2, 1, 0]\nclass = to", fillcolor="#c2f6bd"] ;
304 -> 306 ;
307 [label="requests_byte <= 0.95\ngini = 0.5\nsamples = 2\nvalue = [1, 0, 1, 0]\nclass = sjf", fillcolor="#ffffff"] ;
306 -> 307 ;
308 [label="gini = 0.0\nsamples = 1\nvalue = [0, 0, 1, 0]\nclass = twins", fillcolor="#399de5"] ;
307 -> 308 ;
309 [label="gini = 0.0\nsamples = 1\nvalue = [1, 0, 0, 0]\nclass = sjf", fillcolor="#e58139"] ;
307 -> 309 ;
310 [label="gini = 0.0\nsamples = 2\nvalue = [0, 2, 0, 0]\nclass = to", fillcolor="#47e539"] ;
306 -> 310 ;
311 [label="gini = 0.0\nsamples = 3\nvalue = [3, 0, 0, 0]\nclass = sjf", fillcolor="#e58139"] ;
303 -> 311 ;
312 [label="gini = 0.0\nsamples = 16\nvalue = [16, 0, 0, 0]\nclass = sjf", fillcolor="#e58139"] ;
302 -> 312 ;
313 [label="file <= 1.065\ngini = 0.094\nsamples = 1393\nvalue = [1325, 22, 10, 36]\nclass = sjf", fillcolor="#e68743"] ;
1 -> 313 ;
314 [label="per_request <= -0.587\ngini = 0.049\nsamples = 1118\nvalue = [1090, 16, 7, 5]\nclass = sjf", fillcolor="#e6843e"] ;
313 -> 314 ;
315 [label="inter_time <= -0.428\ngini = 0.11\nsamples = 279\nvalue = [263, 7, 5, 4]\nclass = sjf", fillcolor="#e78845"] ;
314 -> 315 ;
316 [label="file <= -0.456\ngini = 0.075\nsamples = 209\nvalue = [201, 2, 3, 3]\nclass = sjf", fillcolor="#e68641"] ;
315 -> 316 ;
317 [label="gini = 0.0\nsamples = 106\nvalue = [106, 0, 0, 0]\nclass = sjf", fillcolor="#e58139"] ;
316 -> 317 ;
318 [label="requests_byte <= -0.603\ngini = 0.147\nsamples = 103\nvalue = [95, 2, 3, 3]\nclass = sjf", fillcolor="#e78b49"] ;
316 -> 318 ;
319 [label="sequential <= -1.061\ngini = 0.245\nsamples = 44\nvalue = [38, 0, 3, 3]\nclass = sjf", fillcolor="#e99356"] ;
318 -> 319 ;
320 [label="requests_byte <= -0.68\ngini = 0.397\nsamples = 11\nvalue = [8, 0, 0, 3]\nclass = sjf", fillcolor="#efb083"] ;
319 -> 320 ;
321 [label="inter_time <= -0.555\ngini = 0.48\nsamples = 5\nvalue = [2, 0, 0, 3]\nclass = mlf", fillcolor="#f2bdf6"] ;
320 -> 321 ;
322 [label="file <= 0.304\ngini = 0.444\nsamples = 3\nvalue = [2, 0, 0, 1]\nclass = sjf", fillcolor="#f2c09c"] ;
321 -> 322 ;
323 [label="gini = 0.0\nsamples = 1\nvalue = [0, 0, 0, 1]\nclass = mlf", fillcolor="#d739e5"] ;
322 -> 323 ;
324 [label="gini = 0.0\nsamples = 2\nvalue = [2, 0, 0, 0]\nclass = sjf", fillcolor="#e58139"] ;
322 -> 324 ;
325 [label="gini = 0.0\nsamples = 2\nvalue = [0, 0, 0, 2]\nclass = mlf", fillcolor="#d739e5"] ;
321 -> 325 ;
326 [label="gini = 0.0\nsamples = 6\nvalue = [6, 0, 0, 0]\nclass = sjf", fillcolor="#e58139"] ;
320 -> 326 ;
327 [label="inter_time <= -0.567\ngini = 0.165\nsamples = 33\nvalue = [30, 0, 3, 0]\nclass = sjf", fillcolor="#e88e4d"] ;
319 -> 327 ;
328 [label="requests_byte <= -0.68\ngini = 0.355\nsamples = 13\nvalue = [10, 0, 3, 0]\nclass = sjf", fillcolor="#eda774"] ;
327 -> 328 ;
329 [label="gini = 0.0\nsamples = 7\nvalue = [7, 0, 0, 0]\nclass = sjf", fillcolor="#e58139"] ;
328 -> 329 ;
330 [label="sequential <= -0.354\ngini = 0.5\nsamples = 6\nvalue = [3, 0, 3, 0]\nclass = sjf", fillcolor="#ffffff"] ;
328 -> 330 ;
331 [label="gini = 0.0\nsamples = 2\nvalue = [2, 0, 0, 0]\nclass = sjf", fillcolor="#e58139"] ;
330 -> 331 ;
332 [label="sequential <= 0.354\ngini = 0.375\nsamples = 4\nvalue = [1, 0, 3, 0]\nclass = twins", fillcolor="#7bbeee"] ;
330 -> 332 ;
333 [label="file <= 0.304\ngini = 0.5\nsamples = 2\nvalue = [1, 0, 1, 0]\nclass = sjf", fillcolor="#ffffff"] ;
332 -> 333 ;
334 [label="gini = 0.0\nsamples = 1\nvalue = [1, 0, 0, 0]\nclass = sjf", fillcolor="#e58139"] ;
333 -> 334 ;
335 [label="gini = 0.0\nsamples = 1\nvalue = [0, 0, 1, 0]\nclass = twins", fillcolor="#399de5"] ;
333 -> 335 ;
336 [label="gini = 0.0\nsamples = 2\nvalue = [0, 0, 2, 0]\nclass = twins", fillcolor="#399de5"] ;
332 -> 336 ;
337 [label="gini = 0.0\nsamples = 20\nvalue = [20, 0, 0, 0]\nclass = sjf", fillcolor="#e58139"] ;
327 -> 337 ;
338 [label="requests_byte <= -0.292\ngini = 0.065\nsamples = 59\nvalue = [57, 2, 0, 0]\nclass = sjf", fillcolor="#e68540"] ;
318 -> 338 ;
339 [label="sequential <= -0.354\ngini = 0.159\nsamples = 23\nvalue = [21, 2, 0, 0]\nclass = sjf", fillcolor="#e78d4c"] ;
338 -> 339 ;
340 [label="file <= 0.304\ngini = 0.32\nsamples = 10\nvalue = [8, 2, 0, 0]\nclass = sjf", fillcolor="#eca06a"] ;
339 -> 340 ;
341 [label="gini = 0.0\nsamples = 6\nvalue = [6, 0, 0, 0]\nclass = sjf", fillcolor="#e58139"] ;
340 -> 341 ;
342 [label="sequential <= -1.061\ngini = 0.5\nsamples = 4\nvalue = [2, 2, 0, 0]\nclass = sjf", fillcolor="#ffffff"] ;
340 -> 342 ;
343 [label="gini = 0.0\nsamples = 2\nvalue = [2, 0, 0, 0]\nclass = sjf", fillcolor="#e58139"] ;
342 -> 343 ;
344 [label="gini = 0.0\nsamples = 2\nvalue = [0, 2, 0, 0]\nclass = to", fillcolor="#47e539"] ;
342 -> 344 ;
345 [label="gini = 0.0\nsamples = 13\nvalue = [13, 0, 0, 0]\nclass = sjf", fillcolor="#e58139"] ;
339 -> 345 ;
346 [label="gini = 0.0\nsamples = 36\nvalue = [36, 0, 0, 0]\nclass = sjf", fillcolor="#e58139"] ;
338 -> 346 ;
347 [label="requests_byte <= 0.95\ngini = 0.209\nsamples = 70\nvalue = [62, 5, 2, 1]\nclass = sjf", fillcolor="#e89151"] ;
315 -> 347 ;
348 [label="requests_byte <= -0.68\ngini = 0.168\nsamples = 56\nvalue = [51, 2, 2, 1]\nclass = sjf", fillcolor="#e78d4b"] ;
347 -> 348 ;
349 [label="sequential <= -1.061\ngini = 0.292\nsamples = 12\nvalue = [10, 0, 1, 1]\nclass = sjf", fillcolor="#ea985d"] ;
348 -> 349 ;
350 [label="file <= -0.456\ngini = 0.444\nsamples = 3\nvalue = [2, 0, 0, 1]\nclass = sjf", fillcolor="#f2c09c"] ;
349 -> 350 ;
351 [label="gini = 0.0\nsamples = 1\nvalue = [1, 0, 0, 0]\nclass = sjf", fillcolor="#e58139"] ;
350 -> 351 ;
352 [label="file <= 0.304\ngini = 0.5\nsamples = 2\nvalue = [1, 0, 0, 1]\nclass = sjf", fillcolor="#ffffff"] ;
350 -> 352 ;
353 [label="gini = 0.0\nsamples = 1\nvalue = [0, 0, 0, 1]\nclass = mlf", fillcolor="#d739e5"] ;
352 -> 353 ;
354 [label="gini = 0.0\nsamples = 1\nvalue = [1, 0, 0, 0]\nclass = sjf", fillcolor="#e58139"] ;
352 -> 354 ;
355 [label="sequential <= 0.354\ngini = 0.198\nsamples = 9\nvalue = [8, 0, 1, 0]\nclass = sjf", fillcolor="#e89152"] ;
349 -> 355 ;
356 [label="file <= -0.152\ngini = 0.375\nsamples = 4\nvalue = [3, 0, 1, 0]\nclass = sjf", fillcolor="#eeab7b"] ;
355 -> 356 ;
357 [label="file <= -1.065\ngini = 0.5\nsamples = 2\nvalue = [1, 0, 1, 0]\nclass = sjf", fillcolor="#ffffff"] ;
356 -> 357 ;
358 [label="gini = 0.0\nsamples = 1\nvalue = [1, 0, 0, 0]\nclass = sjf", fillcolor="#e58139"] ;
357 -> 358 ;
359 [label="gini = 0.0\nsamples = 1\nvalue = [0, 0, 1, 0]\nclass = twins", fillcolor="#399de5"] ;
357 -> 359 ;
360 [label="gini = 0.0\nsamples = 2\nvalue = [2, 0, 0, 0]\nclass = sjf", fillcolor="#e58139"] ;
356 -> 360 ;
361 [label="gini = 0.0\nsamples = 5\nvalue = [5, 0, 0, 0]\nclass = sjf", fillcolor="#e58139"] ;
355 -> 361 ;
362 [label="sequential <= -0.354\ngini = 0.129\nsamples = 44\nvalue = [41, 2, 1, 0]\nclass = sjf", fillcolor="#e78a47"] ;
348 -> 362 ;
363 [label="gini = 0.0\nsamples = 19\nvalue = [19, 0, 0, 0]\nclass = sjf", fillcolor="#e58139"] ;
362 -> 363 ;
364 [label="file <= -1.065\ngini = 0.218\nsamples = 25\nvalue = [22, 2, 1, 0]\nclass = sjf", fillcolor="#e89153"] ;
362 -> 364 ;
365 [label="gini = 0.0\nsamples = 7\nvalue = [7, 0, 0, 0]\nclass = sjf", fillcolor="#e58139"] ;
364 -> 365 ;
366 [label="requests_byte <= -0.292\ngini = 0.29\nsamples = 18\nvalue = [15, 2, 1, 0]\nclass = sjf", fillcolor="#ea995e"] ;
364 -> 366 ;
367 [label="file <= -0.456\ngini = 0.165\nsamples = 11\nvalue = [10, 1, 0, 0]\nclass = sjf", fillcolor="#e88e4d"] ;
366 -> 367 ;
368 [label="requests_byte <= -0.603\ngini = 0.5\nsamples = 2\nvalue = [1, 1, 0, 0]\nclass = sjf", fillcolor="#ffffff"] ;
367 -> 368 ;
369 [label="gini = 0.0\nsamples = 1\nvalue = [0, 1, 0, 0]\nclass = to", fillcolor="#47e539"] ;
368 -> 369 ;
370 [label="gini = 0.0\nsamples = 1\nvalue = [1, 0, 0, 0]\nclass = sjf", fillcolor="#e58139"] ;
368 -> 370 ;
371 [label="gini = 0.0\nsamples = 9\nvalue = [9, 0, 0, 0]\nclass = sjf", fillcolor="#e58139"] ;
367 -> 371 ;
372 [label="file <= 0.304\ngini = 0.449\nsamples = 7\nvalue = [5, 1, 1, 0]\nclass = sjf", fillcolor="#eeab7b"] ;
366 -> 372 ;
373 [label="sequential <= 0.354\ngini = 0.32\nsamples = 5\nvalue = [4, 0, 1, 0]\nclass = sjf", fillcolor="#eca06a"] ;
372 -> 373 ;
374 [label="file <= -0.456\ngini = 0.5\nsamples = 2\nvalue = [1, 0, 1, 0]\nclass = sjf", fillcolor="#ffffff"] ;
373 -> 374 ;
375 [label="gini = 0.0\nsamples = 1\nvalue = [1, 0, 0, 0]\nclass = sjf", fillcolor="#e58139"] ;
374 -> 375 ;
376 [label="gini = 0.0\nsamples = 1\nvalue = [0, 0, 1, 0]\nclass = twins", fillcolor="#399de5"] ;
374 -> 376 ;
377 [label="gini = 0.0\nsamples = 3\nvalue = [3, 0, 0, 0]\nclass = sjf", fillcolor="#e58139"] ;
373 -> 377 ;
378 [label="sequential <= 1.061\ngini = 0.5\nsamples = 2\nvalue = [1, 1, 0, 0]\nclass = sjf", fillcolor="#ffffff"] ;
372 -> 378 ;
379 [label="gini = 0.0\nsamples = 1\nvalue = [0, 1, 0, 0]\nclass = to", fillcolor="#47e539"] ;
378 -> 379 ;
380 [label="gini = 0.0\nsamples = 1\nvalue = [1, 0, 0, 0]\nclass = sjf", fillcolor="#e58139"] ;
378 -> 380 ;
381 [label="sequential <= -1.061\ngini = 0.337\nsamples = 14\nvalue = [11, 3, 0, 0]\nclass = sjf", fillcolor="#eca36f"] ;
347 -> 381 ;
382 [label="file <= -0.609\ngini = 0.5\nsamples = 2\nvalue = [1, 1, 0, 0]\nclass = sjf", fillcolor="#ffffff"] ;
381 -> 382 ;
383 [label="gini = 0.0\nsamples = 1\nvalue = [1, 0, 0, 0]\nclass = sjf", fillcolor="#e58139"] ;
382 -> 383 ;
384 [label="gini = 0.0\nsamples = 1\nvalue = [0, 1, 0, 0]\nclass = to", fillcolor="#47e539"] ;
382 -> 384 ;
385 [label="sequential <= 1.061\ngini = 0.278\nsamples = 12\nvalue = [10, 2, 0, 0]\nclass = sjf", fillcolor="#ea9a61"] ;
381 -> 385 ;
386 [label="file <= -0.456\ngini = 0.18\nsamples = 10\nvalue = [9, 1, 0, 0]\nclass = sjf", fillcolor="#e88f4f"] ;
385 -> 386 ;
387 [label="gini = 0.0\nsamples = 6\nvalue = [6, 0, 0, 0]\nclass = sjf", fillcolor="#e58139"] ;
386 -> 387 ;
388 [label="file <= 0.304\ngini = 0.375\nsamples = 4\nvalue = [3, 1, 0, 0]\nclass = sjf", fillcolor="#eeab7b"] ;
386 -> 388 ;
389 [label="sequential <= -0.354\ngini = 0.5\nsamples = 2\nvalue = [1, 1, 0, 0]\nclass = sjf", fillcolor="#ffffff"] ;
388 -> 389 ;
390 [label="gini = 0.0\nsamples = 1\nvalue = [1, 0, 0, 0]\nclass = sjf", fillcolor="#e58139"] ;
389 -> 390 ;
391 [label="gini = 0.0\nsamples = 1\nvalue = [0, 1, 0, 0]\nclass = to", fillcolor="#47e539"] ;
389 -> 391 ;
392 [label="gini = 0.0\nsamples = 2\nvalue = [2, 0, 0, 0]\nclass = sjf", fillcolor="#e58139"] ;
388 -> 392 ;
393 [label="file <= -0.304\ngini = 0.5\nsamples = 2\nvalue = [1, 1, 0, 0]\nclass = sjf", fillcolor="#ffffff"] ;
385 -> 393 ;
394 [label="gini = 0.0\nsamples = 1\nvalue = [0, 1, 0, 0]\nclass = to", fillcolor="#47e539"] ;
393 -> 394 ;
395 [label="gini = 0.0\nsamples = 1\nvalue = [1, 0, 0, 0]\nclass = sjf", fillcolor="#e58139"] ;
393 -> 395 ;
396 [label="requests_byte <= -0.603\ngini = 0.028\nsamples = 839\nvalue = [827, 9, 2, 1]\nclass = sjf", fillcolor="#e5833c"] ;
314 -> 396 ;
397 [label="inter_time <= -0.428\ngini = 0.054\nsamples = 327\nvalue = [318, 6, 2, 1]\nclass = sjf", fillcolor="#e6853f"] ;
396 -> 397 ;
398 [label="file <= 0.304\ngini = 0.032\nsamples = 245\nvalue = [241, 2, 1, 1]\nclass = sjf", fillcolor="#e5833c"] ;
397 -> 398 ;
399 [label="per_request <= -0.037\ngini = 0.011\nsamples = 188\nvalue = [187, 0, 1, 0]\nclass = sjf", fillcolor="#e5823a"] ;
398 -> 399 ;
400 [label="inter_time <= -0.567\ngini = 0.032\nsamples = 62\nvalue = [61, 0, 1, 0]\nclass = sjf", fillcolor="#e5833c"] ;
399 -> 400 ;
401 [label="file <= -0.456\ngini = 0.095\nsamples = 20\nvalue = [19, 0, 1, 0]\nclass = sjf", fillcolor="#e68843"] ;
400 -> 401 ;
402 [label="gini = 0.0\nsamples = 12\nvalue = [12, 0, 0, 0]\nclass = sjf", fillcolor="#e58139"] ;
401 -> 402 ;
403 [label="sequential <= 0.354\ngini = 0.219\nsamples = 8\nvalue = [7, 0, 1, 0]\nclass = sjf", fillcolor="#e99355"] ;
401 -> 403 ;
404 [label="sequential <= -0.354\ngini = 0.375\nsamples = 4\nvalue = [3, 0, 1, 0]\nclass = sjf", fillcolor="#eeab7b"] ;
403 -> 404 ;
405 [label="gini = 0.0\nsamples = 2\nvalue = [2, 0, 0, 0]\nclass = sjf", fillcolor="#e58139"] ;
404 -> 405 ;
406 [label="requests_byte <= -0.68\ngini = 0.5\nsamples = 2\nvalue = [1, 0, 1, 0]\nclass = sjf", fillcolor="#ffffff"] ;
404 -> 406 ;
407 [label="gini = 0.0\nsamples = 1\nvalue = [1, 0, 0, 0]\nclass = sjf", fillcolor="#e58139"] ;
406 -> 407 ;
408 [label="gini = 0.0\nsamples = 1\nvalue = [0, 0, 1, 0]\nclass = twins", fillcolor="#399de5"] ;
406 -> 408 ;
409 [label="gini = 0.0\nsamples = 4\nvalue = [4, 0, 0, 0]\nclass = sjf", fillcolor="#e58139"] ;
403 -> 409 ;
410 [label="gini = 0.0\nsamples = 42\nvalue = [42, 0, 0, 0]\nclass = sjf", fillcolor="#e58139"] ;
400 -> 410 ;
411 [label="gini = 0.0\nsamples = 126\nvalue = [126, 0, 0, 0]\nclass = sjf", fillcolor="#e58139"] ;
399 -> 411 ;
412 [label="per_request <= 1.063\ngini = 0.101\nsamples = 57\nvalue = [54, 2, 0, 1]\nclass = sjf", fillcolor="#e68844"] ;
398 -> 412 ;
413 [label="per_request <= -0.037\ngini = 0.145\nsamples = 39\nvalue = [36, 2, 0, 1]\nclass = sjf", fillcolor="#e78b49"] ;
412 -> 413 ;
414 [label="sequential <= -1.061\ngini = 0.091\nsamples = 21\nvalue = [20, 0, 0, 1]\nclass = sjf", fillcolor="#e68743"] ;
413 -> 414 ;
415 [label="inter_time <= -0.567\ngini = 0.444\nsamples = 3\nvalue = [2, 0, 0, 1]\nclass = sjf", fillcolor="#f2c09c"] ;
414 -> 415 ;
416 [label="gini = 0.0\nsamples = 1\nvalue = [0, 0, 0, 1]\nclass = mlf", fillcolor="#d739e5"] ;
415 -> 416 ;
417 [label="gini = 0.0\nsamples = 2\nvalue = [2, 0, 0, 0]\nclass = sjf", fillcolor="#e58139"] ;
415 -> 417 ;
418 [label="gini = 0.0\nsamples = 18\nvalue = [18, 0, 0, 0]\nclass = sjf", fillcolor="#e58139"] ;
414 -> 418 ;
419 [label="sequential <= 1.061\ngini = 0.198\nsamples = 18\nvalue = [16, 2, 0, 0]\nclass = sjf", fillcolor="#e89152"] ;
413 -> 419 ;
420 [label="inter_time <= -0.555\ngini = 0.117\nsamples = 16\nvalue = [15, 1, 0, 0]\nclass = sjf", fillcolor="#e78946"] ;
419 -> 420 ;
421 [label="gini = 0.0\nsamples = 11\nvalue = [11, 0, 0, 0]\nclass = sjf", fillcolor="#e58139"] ;
420 -> 421 ;
422 [label="requests_byte <= -0.68\ngini = 0.32\nsamples = 5\nvalue = [4, 1, 0, 0]\nclass = sjf", fillcolor="#eca06a"] ;
420 -> 422 ;
423 [label="gini = 0.0\nsamples = 2\nvalue = [2, 0, 0, 0]\nclass = sjf", fillcolor="#e58139"] ;
422 -> 423 ;
424 [label="sequential <= -0.354\ngini = 0.444\nsamples = 3\nvalue = [2, 1, 0, 0]\nclass = sjf", fillcolor="#f2c09c"] ;
422 -> 424 ;
425 [label="gini = 0.0\nsamples = 1\nvalue = [1, 0, 0, 0]\nclass = sjf", fillcolor="#e58139"] ;
424 -> 425 ;
426 [label="sequential <= 0.354\ngini = 0.5\nsamples = 2\nvalue = [1, 1, 0, 0]\nclass = sjf", fillcolor="#ffffff"] ;
424 -> 426 ;
427 [label="gini = 0.0\nsamples = 1\nvalue = [0, 1, 0, 0]\nclass = to", fillcolor="#47e539"] ;
426 -> 427 ;
428 [label="gini = 0.0\nsamples = 1\nvalue = [1, 0, 0, 0]\nclass = sjf", fillcolor="#e58139"] ;
426 -> 428 ;
429 [label="inter_time <= -0.556\ngini = 0.5\nsamples = 2\nvalue = [1, 1, 0, 0]\nclass = sjf", fillcolor="#ffffff"] ;
419 -> 429 ;
430 [label="gini = 0.0\nsamples = 1\nvalue = [0, 1, 0, 0]\nclass = to", fillcolor="#47e539"] ;
429 -> 430 ;
431 [label="gini = 0.0\nsamples = 1\nvalue = [1, 0, 0, 0]\nclass = sjf", fillcolor="#e58139"] ;
429 -> 431 ;
432 [label="gini = 0.0\nsamples = 18\nvalue = [18, 0, 0, 0]\nclass = sjf", fillcolor="#e58139"] ;
412 -> 432 ;
433 [label="file <= -1.065\ngini = 0.116\nsamples = 82\nvalue = [77, 4, 1, 0]\nclass = sjf", fillcolor="#e78946"] ;
397 -> 433 ;
434 [label="sequential <= -1.061\ngini = 0.288\nsamples = 24\nvalue = [20, 3, 1, 0]\nclass = sjf", fillcolor="#ea995f"] ;
433 -> 434 ;
435 [label="per_request <= 1.063\ngini = 0.625\nsamples = 4\nvalue = [2, 1, 1, 0]\nclass = sjf", fillcolor="#f6d5bd"] ;
434 -> 435 ;
436 [label="per_request <= -0.037\ngini = 0.444\nsamples = 3\nvalue = [2, 0, 1, 0]\nclass = sjf", fillcolor="#f2c09c"] ;
435 -> 436 ;
437 [label="gini = 0.0\nsamples = 1\nvalue = [1, 0, 0, 0]\nclass = sjf", fillcolor="#e58139"] ;
436 -> 437 ;
438 [label="requests_byte <= -0.68\ngini = 0.5\nsamples = 2\nvalue = [1, 0, 1, 0]\nclass = sjf", fillcolor="#ffffff"] ;
436 -> 438 ;
439 [label="gini = 0.0\nsamples = 1\nvalue = [0, 0, 1, 0]\nclass = twins", fillcolor="#399de5"] ;
438 -> 439 ;
440 [label="gini = 0.0\nsamples = 1\nvalue = [1, 0, 0, 0]\nclass = sjf", fillcolor="#e58139"] ;
438 -> 440 ;
441 [label="gini = 0.0\nsamples = 1\nvalue = [0, 1, 0, 0]\nclass = to", fillcolor="#47e539"] ;
435 -> 441 ;
442 [label="sequential <= 0.354\ngini = 0.18\nsamples = 20\nvalue = [18, 2, 0, 0]\nclass = sjf", fillcolor="#e88f4f"] ;
434 -> 442 ;
443 [label="gini = 0.0\nsamples = 9\nvalue = [9, 0, 0, 0]\nclass = sjf", fillcolor="#e58139"] ;
442 -> 443 ;
444 [label="sequential <= 1.061\ngini = 0.298\nsamples = 11\nvalue = [9, 2, 0, 0]\nclass = sjf", fillcolor="#eb9d65"] ;
442 -> 444 ;
445 [label="requests_byte <= -0.68\ngini = 0.48\nsamples = 5\nvalue = [3, 2, 0, 0]\nclass = sjf", fillcolor="#f6d5bd"] ;
444 -> 445 ;
446 [label="gini = 0.0\nsamples = 2\nvalue = [2, 0, 0, 0]\nclass = sjf", fillcolor="#e58139"] ;
445 -> 446 ;
447 [label="per_request <= 1.063\ngini = 0.444\nsamples = 3\nvalue = [1, 2, 0, 0]\nclass = to", fillcolor="#a3f29c"] ;
445 -> 447 ;
448 [label="gini = 0.0\nsamples = 2\nvalue = [0, 2, 0, 0]\nclass = to", fillcolor="#47e539"] ;
447 -> 448 ;
449 [label="gini = 0.0\nsamples = 1\nvalue = [1, 0, 0, 0]\nclass = sjf", fillcolor="#e58139"] ;
447 -> 449 ;
450 [label="gini = 0.0\nsamples = 6\nvalue = [6, 0, 0, 0]\nclass = sjf", fillcolor="#e58139"] ;
444 -> 450 ;
451 [label="file <= -0.456\ngini = 0.034\nsamples = 58\nvalue = [57, 1, 0, 0]\nclass = sjf", fillcolor="#e5833c"] ;
433 -> 451 ;
452 [label="requests_byte <= -0.68\ngini = 0.1\nsamples = 19\nvalue = [18, 1, 0, 0]\nclass = sjf", fillcolor="#e68844"] ;
451 -> 452 ;
453 [label="gini = 0.0\nsamples = 10\nvalue = [10, 0, 0, 0]\nclass = sjf", fillcolor="#e58139"] ;
452 -> 453 ;
454 [label="sequential <= -0.354\ngini = 0.198\nsamples = 9\nvalue = [8, 1, 0, 0]\nclass = sjf", fillcolor="#e89152"] ;
452 -> 454 ;
455 [label="gini = 0.0\nsamples = 5\nvalue = [5, 0, 0, 0]\nclass = sjf", fillcolor="#e58139"] ;
454 -> 455 ;
456 [label="sequential <= 0.354\ngini = 0.375\nsamples = 4\nvalue = [3, 1, 0, 0]\nclass = sjf", fillcolor="#eeab7b"] ;
454 -> 456 ;
457 [label="per_request <= -0.037\ngini = 0.5\nsamples = 2\nvalue = [1, 1, 0, 0]\nclass = sjf", fillcolor="#ffffff"] ;
456 -> 457 ;
458 [label="gini = 0.0\nsamples = 1\nvalue = [1, 0, 0, 0]\nclass = sjf", fillcolor="#e58139"] ;
457 -> 458 ;
459 [label="gini = 0.0\nsamples = 1\nvalue = [0, 1, 0, 0]\nclass = to", fillcolor="#47e539"] ;
457 -> 459 ;
460 [label="gini = 0.0\nsamples = 2\nvalue = [2, 0, 0, 0]\nclass = sjf", fillcolor="#e58139"] ;
456 -> 460 ;
461 [label="gini = 0.0\nsamples = 39\nvalue = [39, 0, 0, 0]\nclass = sjf", fillcolor="#e58139"] ;
451 -> 461 ;
462 [label="per_request <= -0.037\ngini = 0.012\nsamples = 512\nvalue = [509, 3, 0, 0]\nclass = sjf", fillcolor="#e5823a"] ;
396 -> 462 ;
463 [label="requests_byte <= -0.292\ngini = 0.036\nsamples = 164\nvalue = [161, 3, 0, 0]\nclass = sjf", fillcolor="#e5833d"] ;
462 -> 463 ;
464 [label="gini = 0.0\nsamples = 53\nvalue = [53, 0, 0, 0]\nclass = sjf", fillcolor="#e58139"] ;
463 -> 464 ;
465 [label="inter_time <= -0.567\ngini = 0.053\nsamples = 111\nvalue = [108, 3, 0, 0]\nclass = sjf", fillcolor="#e6843e"] ;
463 -> 465 ;
466 [label="gini = 0.0\nsamples = 26\nvalue = [26, 0, 0, 0]\nclass = sjf", fillcolor="#e58139"] ;
465 -> 466 ;
467 [label="sequential <= -1.061\ngini = 0.068\nsamples = 85\nvalue = [82, 3, 0, 0]\nclass = sjf", fillcolor="#e68640"] ;
465 -> 467 ;
468 [label="gini = 0.0\nsamples = 19\nvalue = [19, 0, 0, 0]\nclass = sjf", fillcolor="#e58139"] ;
467 -> 468 ;
469 [label="sequential <= -0.354\ngini = 0.087\nsamples = 66\nvalue = [63, 3, 0, 0]\nclass = sjf", fillcolor="#e68742"] ;
467 -> 469 ;
470 [label="file <= 0.304\ngini = 0.188\nsamples = 19\nvalue = [17, 2, 0, 0]\nclass = sjf", fillcolor="#e89050"] ;
469 -> 470 ;
471 [label="inter_time <= -0.555\ngini = 0.117\nsamples = 16\nvalue = [15, 1, 0, 0]\nclass = sjf", fillcolor="#e78946"] ;
470 -> 471 ;
472 [label="file <= -1.065\ngini = 0.32\nsamples = 5\nvalue = [4, 1, 0, 0]\nclass = sjf", fillcolor="#eca06a"] ;
471 -> 472 ;
473 [label="requests_byte <= 0.95\ngini = 0.5\nsamples = 2\nvalue = [1, 1, 0, 0]\nclass = sjf", fillcolor="#ffffff"] ;
472 -> 473 ;
474 [label="gini = 0.0\nsamples = 1\nvalue = [0, 1, 0, 0]\nclass = to", fillcolor="#47e539"] ;
473 -> 474 ;
475 [label="gini = 0.0\nsamples = 1\nvalue = [1, 0, 0, 0]\nclass = sjf", fillcolor="#e58139"] ;
473 -> 475 ;
476 [label="gini = 0.0\nsamples = 3\nvalue = [3, 0, 0, 0]\nclass = sjf", fillcolor="#e58139"] ;
472 -> 476 ;
477 [label="gini = 0.0\nsamples = 11\nvalue = [11, 0, 0, 0]\nclass = sjf", fillcolor="#e58139"] ;
471 -> 477 ;
478 [label="inter_time <= -0.428\ngini = 0.444\nsamples = 3\nvalue = [2, 1, 0, 0]\nclass = sjf", fillcolor="#f2c09c"] ;
470 -> 478 ;
479 [label="gini = 0.0\nsamples = 1\nvalue = [0, 1, 0, 0]\nclass = to", fillcolor="#47e539"] ;
478 -> 479 ;
480 [label="gini = 0.0\nsamples = 2\nvalue = [2, 0, 0, 0]\nclass = sjf", fillcolor="#e58139"] ;
478 -> 480 ;
481 [label="inter_time <= -0.428\ngini = 0.042\nsamples = 47\nvalue = [46, 1, 0, 0]\nclass = sjf", fillcolor="#e6843d"] ;
469 -> 481 ;
482 [label="gini = 0.0\nsamples = 32\nvalue = [32, 0, 0, 0]\nclass = sjf", fillcolor="#e58139"] ;
481 -> 482 ;
483 [label="file <= -0.456\ngini = 0.124\nsamples = 15\nvalue = [14, 1, 0, 0]\nclass = sjf", fillcolor="#e78a47"] ;
481 -> 483 ;
484 [label="file <= -1.065\ngini = 0.278\nsamples = 6\nvalue = [5, 1, 0, 0]\nclass = sjf", fillcolor="#ea9a61"] ;
483 -> 484 ;
485 [label="gini = 0.0\nsamples = 5\nvalue = [5, 0, 0, 0]\nclass = sjf", fillcolor="#e58139"] ;
484 -> 485 ;
486 [label="gini = 0.0\nsamples = 1\nvalue = [0, 1, 0, 0]\nclass = to", fillcolor="#47e539"] ;
484 -> 486 ;
487 [label="gini = 0.0\nsamples = 9\nvalue = [9, 0, 0, 0]\nclass = sjf", fillcolor="#e58139"] ;
483 -> 487 ;
488 [label="gini = 0.0\nsamples = 348\nvalue = [348, 0, 0, 0]\nclass = sjf", fillcolor="#e58139"] ;
462 -> 488 ;
489 [label="per_request <= -0.037\ngini = 0.256\nsamples = 275\nvalue = [235, 6, 3, 31]\nclass = sjf", fillcolor="#e99659"] ;
313 -> 489 ;
490 [label="requests_byte <= -0.68\ngini = 0.384\nsamples = 128\nvalue = [97, 3, 2, 26]\nclass = sjf", fillcolor="#eda775"] ;
489 -> 490 ;
491 [label="sequential <= 1.061\ngini = 0.544\nsamples = 21\nvalue = [10, 1, 0, 10]\nclass = sjf", fillcolor="#ffffff"] ;
490 -> 491 ;
492 [label="inter_time <= -0.567\ngini = 0.537\nsamples = 18\nvalue = [7, 1, 0, 10]\nclass = mlf", fillcolor="#f4c9f8"] ;
491 -> 492 ;
493 [label="sequential <= -1.061\ngini = 0.375\nsamples = 4\nvalue = [3, 0, 0, 1]\nclass = sjf", fillcolor="#eeab7b"] ;
492 -> 493 ;
494 [label="gini = 0.0\nsamples = 1\nvalue = [0, 0, 0, 1]\nclass = mlf", fillcolor="#d739e5"] ;
493 -> 494 ;
495 [label="gini = 0.0\nsamples = 3\nvalue = [3, 0, 0, 0]\nclass = sjf", fillcolor="#e58139"] ;
493 -> 495 ;
496 [label="inter_time <= -0.428\ngini = 0.5\nsamples = 14\nvalue = [4, 1, 0, 9]\nclass = mlf", fillcolor="#eb9cf2"] ;
492 -> 496 ;
497 [label="per_request <= -0.587\ngini = 0.32\nsamples = 10\nvalue = [2, 0, 0, 8]\nclass = mlf", fillcolor="#e16aec"] ;
496 -> 497 ;
498 [label="gini = 0.0\nsamples = 7\nvalue = [0, 0, 0, 7]\nclass = mlf", fillcolor="#d739e5"] ;
497 -> 498 ;
499 [label="sequential <= -0.354\ngini = 0.444\nsamples = 3\nvalue = [2, 0, 0, 1]\nclass = sjf", fillcolor="#f2c09c"] ;
497 -> 499 ;
500 [label="gini = 0.0\nsamples = 2\nvalue = [2, 0, 0, 0]\nclass = sjf", fillcolor="#e58139"] ;
499 -> 500 ;
501 [label="gini = 0.0\nsamples = 1\nvalue = [0, 0, 0, 1]\nclass = mlf", fillcolor="#d739e5"] ;
499 -> 501 ;
502 [label="sequential <= -0.707\ngini = 0.625\nsamples = 4\nvalue = [2, 1, 0, 1]\nclass = sjf", fillcolor="#f6d5bd"] ;
496 -> 502 ;
503 [label="gini = 0.0\nsamples = 1\nvalue = [0, 0, 0, 1]\nclass = mlf", fillcolor="#d739e5"] ;
502 -> 503 ;
504 [label="sequential <= 0.354\ngini = 0.444\nsamples = 3\nvalue = [2, 1, 0, 0]\nclass = sjf", fillcolor="#f2c09c"] ;
502 -> 504 ;
505 [label="gini = 0.0\nsamples = 2\nvalue = [2, 0, 0, 0]\nclass = sjf", fillcolor="#e58139"] ;
504 -> 505 ;
506 [label="gini = 0.0\nsamples = 1\nvalue = [0, 1, 0, 0]\nclass = to", fillcolor="#47e539"] ;
504 -> 506 ;
507 [label="gini = 0.0\nsamples = 3\nvalue = [3, 0, 0, 0]\nclass = sjf", fillcolor="#e58139"] ;
491 -> 507 ;
508 [label="sequential <= -0.354\ngini = 0.316\nsamples = 107\nvalue = [87, 2, 2, 16]\nclass = sjf", fillcolor="#eb9d65"] ;
490 -> 508 ;
509 [label="inter_time <= -0.567\ngini = 0.456\nsamples = 43\nvalue = [30, 2, 1, 10]\nclass = sjf", fillcolor="#efb387"] ;
508 -> 509 ;
510 [label="requests_byte <= -0.292\ngini = 0.142\nsamples = 13\nvalue = [12, 0, 1, 0]\nclass = sjf", fillcolor="#e78c49"] ;
509 -> 510 ;
511 [label="gini = 0.0\nsamples = 7\nvalue = [7, 0, 0, 0]\nclass = sjf", fillcolor="#e58139"] ;
510 -> 511 ;
512 [label="per_request <= -0.587\ngini = 0.278\nsamples = 6\nvalue = [5, 0, 1, 0]\nclass = sjf", fillcolor="#ea9a61"] ;
510 -> 512 ;
513 [label="sequential <= -1.061\ngini = 0.5\nsamples = 2\nvalue = [1, 0, 1, 0]\nclass = sjf", fillcolor="#ffffff"] ;
512 -> 513 ;
514 [label="gini = 0.0\nsamples = 1\nvalue = [1, 0, 0, 0]\nclass = sjf", fillcolor="#e58139"] ;
513 -> 514 ;
515 [label="gini = 0.0\nsamples = 1\nvalue = [0, 0, 1, 0]\nclass = twins", fillcolor="#399de5"] ;
513 -> 515 ;
516 [label="gini = 0.0\nsamples = 4\nvalue = [4, 0, 0, 0]\nclass = sjf", fillcolor="#e58139"] ;
512 -> 516 ;
517 [label="requests_byte <= -0.292\ngini = 0.524\nsamples = 30\nvalue = [18, 2, 0, 10]\nclass = sjf", fillcolor="#f5cdb0"] ;
509 -> 517 ;
518 [label="per_request <= -0.587\ngini = 0.551\nsamples = 15\nvalue = [6, 1, 0, 8]\nclass = mlf", fillcolor="#f6d3f9"] ;
517 -> 518 ;
519 [label="inter_time <= -0.428\ngini = 0.408\nsamples = 7\nvalue = [5, 0, 0, 2]\nclass = sjf", fillcolor="#efb388"] ;
518 -> 519 ;
520 [label="gini = 0.0\nsamples = 3\nvalue = [3, 0, 0, 0]\nclass = sjf", fillcolor="#e58139"] ;
519 -> 520 ;
521 [label="sequential <= -1.061\ngini = 0.5\nsamples = 4\nvalue = [2, 0, 0, 2]\nclass = sjf", fillcolor="#ffffff"] ;
519 -> 521 ;
522 [label="gini = 0.0\nsamples = 2\nvalue = [2, 0, 0, 0]\nclass = sjf", fillcolor="#e58139"] ;
521 -> 522 ;
523 [label="gini = 0.0\nsamples = 2\nvalue = [0, 0, 0, 2]\nclass = mlf", fillcolor="#d739e5"] ;
521 -> 523 ;
524 [label="requests_byte <= -0.603\ngini = 0.406\nsamples = 8\nvalue = [1, 1, 0, 6]\nclass = mlf", fillcolor="#e272ec"] ;
518 -> 524 ;
525 [label="sequential <= -1.061\ngini = 0.278\nsamples = 6\nvalue = [1, 0, 0, 5]\nclass = mlf", fillcolor="#df61ea"] ;
524 -> 525 ;
526 [label="gini = 0.0\nsamples = 3\nvalue = [0, 0, 0, 3]\nclass = mlf", fillcolor="#d739e5"] ;
525 -> 526 ;
527 [label="inter_time <= -0.555\ngini = 0.444\nsamples = 3\nvalue = [1, 0, 0, 2]\nclass = mlf", fillcolor="#eb9cf2"] ;
525 -> 527 ;
528 [label="gini = 0.0\nsamples = 1\nvalue = [0, 0, 0, 1]\nclass = mlf", fillcolor="#d739e5"] ;
527 -> 528 ;
529 [label="inter_time <= -0.428\ngini = 0.5\nsamples = 2\nvalue = [1, 0, 0, 1]\nclass = sjf", fillcolor="#ffffff"] ;
527 -> 529 ;
530 [label="gini = 0.0\nsamples = 1\nvalue = [1, 0, 0, 0]\nclass = sjf", fillcolor="#e58139"] ;
529 -> 530 ;
531 [label="gini = 0.0\nsamples = 1\nvalue = [0, 0, 0, 1]\nclass = mlf", fillcolor="#d739e5"] ;
529 -> 531 ;
532 [label="inter_time <= -0.555\ngini = 0.5\nsamples = 2\nvalue = [0, 1, 0, 1]\nclass = to", fillcolor="#ffffff"] ;
524 -> 532 ;
533 [label="gini = 0.0\nsamples = 1\nvalue = [0, 0, 0, 1]\nclass = mlf", fillcolor="#d739e5"] ;
532 -> 533 ;
534 [label="gini = 0.0\nsamples = 1\nvalue = [0, 1, 0, 0]\nclass = to", fillcolor="#47e539"] ;
532 -> 534 ;
535 [label="requests_byte <= 0.95\ngini = 0.338\nsamples = 15\nvalue = [12, 1, 0, 2]\nclass = sjf", fillcolor="#eb9e67"] ;
517 -> 535 ;
536 [label="inter_time <= -0.555\ngini = 0.375\nsamples = 8\nvalue = [6, 0, 0, 2]\nclass = sjf", fillcolor="#eeab7b"] ;
535 -> 536 ;
537 [label="gini = 0.0\nsamples = 3\nvalue = [3, 0, 0, 0]\nclass = sjf", fillcolor="#e58139"] ;
536 -> 537 ;
538 [label="sequential <= -1.061\ngini = 0.48\nsamples = 5\nvalue = [3, 0, 0, 2]\nclass = sjf", fillcolor="#f6d5bd"] ;
536 -> 538 ;
539 [label="per_request <= -0.587\ngini = 0.444\nsamples = 3\nvalue = [2, 0, 0, 1]\nclass = sjf", fillcolor="#f2c09c"] ;
538 -> 539 ;
540 [label="gini = 0.0\nsamples = 1\nvalue = [0, 0, 0, 1]\nclass = mlf", fillcolor="#d739e5"] ;
539 -> 540 ;
541 [label="gini = 0.0\nsamples = 2\nvalue = [2, 0, 0, 0]\nclass = sjf", fillcolor="#e58139"] ;
539 -> 541 ;
542 [label="per_request <= -0.587\ngini = 0.5\nsamples = 2\nvalue = [1, 0, 0, 1]\nclass = sjf", fillcolor="#ffffff"] ;
538 -> 542 ;
543 [label="gini = 0.0\nsamples = 1\nvalue = [1, 0, 0, 0]\nclass = sjf", fillcolor="#e58139"] ;
542 -> 543 ;
544 [label="gini = 0.0\nsamples = 1\nvalue = [0, 0, 0, 1]\nclass = mlf", fillcolor="#d739e5"] ;
542 -> 544 ;
545 [label="per_request <= -0.587\ngini = 0.245\nsamples = 7\nvalue = [6, 1, 0, 0]\nclass = sjf", fillcolor="#e9965a"] ;
535 -> 545 ;
546 [label="inter_time <= -0.555\ngini = 0.5\nsamples = 2\nvalue = [1, 1, 0, 0]\nclass = sjf", fillcolor="#ffffff"] ;
545 -> 546 ;
547 [label="gini = 0.0\nsamples = 1\nvalue = [0, 1, 0, 0]\nclass = to", fillcolor="#47e539"] ;
546 -> 547 ;
548 [label="gini = 0.0\nsamples = 1\nvalue = [1, 0, 0, 0]\nclass = sjf", fillcolor="#e58139"] ;
546 -> 548 ;
549 [label="gini = 0.0\nsamples = 5\nvalue = [5, 0, 0, 0]\nclass = sjf", fillcolor="#e58139"] ;
545 -> 549 ;
550 [label="sequential <= 1.061\ngini = 0.198\nsamples = 64\nvalue = [57, 0, 1, 6]\nclass = sjf", fillcolor="#e89051"] ;
508 -> 550 ;
551 [label="per_request <= -0.587\ngini = 0.046\nsamples = 42\nvalue = [41, 0, 0, 1]\nclass = sjf", fillcolor="#e6843e"] ;
550 -> 551 ;
552 [label="gini = 0.0\nsamples = 21\nvalue = [21, 0, 0, 0]\nclass = sjf", fillcolor="#e58139"] ;
551 -> 552 ;
553 [label="sequential <= 0.354\ngini = 0.091\nsamples = 21\nvalue = [20, 0, 0, 1]\nclass = sjf", fillcolor="#e68743"] ;
551 -> 553 ;
554 [label="requests_byte <= -0.292\ngini = 0.165\nsamples = 11\nvalue = [10, 0, 0, 1]\nclass = sjf", fillcolor="#e88e4d"] ;
553 -> 554 ;
555 [label="gini = 0.0\nsamples = 5\nvalue = [5, 0, 0, 0]\nclass = sjf", fillcolor="#e58139"] ;
554 -> 555 ;
556 [label="requests_byte <= 0.95\ngini = 0.278\nsamples = 6\nvalue = [5, 0, 0, 1]\nclass = sjf", fillcolor="#ea9a61"] ;
554 -> 556 ;
557 [label="inter_time <= -0.556\ngini = 0.444\nsamples = 3\nvalue = [2, 0, 0, 1]\nclass = sjf", fillcolor="#f2c09c"] ;
556 -> 557 ;
558 [label="gini = 0.0\nsamples = 1\nvalue = [1, 0, 0, 0]\nclass = sjf", fillcolor="#e58139"] ;
557 -> 558 ;
559 [label="inter_time <= -0.428\ngini = 0.5\nsamples = 2\nvalue = [1, 0, 0, 1]\nclass = sjf", fillcolor="#ffffff"] ;
557 -> 559 ;
560 [label="gini = 0.0\nsamples = 1\nvalue = [0, 0, 0, 1]\nclass = mlf", fillcolor="#d739e5"] ;
559 -> 560 ;
561 [label="gini = 0.0\nsamples = 1\nvalue = [1, 0, 0, 0]\nclass = sjf", fillcolor="#e58139"] ;
559 -> 561 ;
562 [label="gini = 0.0\nsamples = 3\nvalue = [3, 0, 0, 0]\nclass = sjf", fillcolor="#e58139"] ;
556 -> 562 ;
563 [label="gini = 0.0\nsamples = 10\nvalue = [10, 0, 0, 0]\nclass = sjf", fillcolor="#e58139"] ;
553 -> 563 ;
564 [label="inter_time <= -0.567\ngini = 0.417\nsamples = 22\nvalue = [16, 0, 1, 5]\nclass = sjf", fillcolor="#eead7f"] ;
550 -> 564 ;
565 [label="per_request <= -0.587\ngini = 0.375\nsamples = 4\nvalue = [1, 0, 0, 3]\nclass = mlf", fillcolor="#e47bee"] ;
564 -> 565 ;
566 [label="gini = 0.0\nsamples = 3\nvalue = [0, 0, 0, 3]\nclass = mlf", fillcolor="#d739e5"] ;
565 -> 566 ;
567 [label="gini = 0.0\nsamples = 1\nvalue = [1, 0, 0, 0]\nclass = sjf", fillcolor="#e58139"] ;
565 -> 567 ;
568 [label="requests_byte <= -0.292\ngini = 0.29\nsamples = 18\nvalue = [15, 0, 1, 2]\nclass = sjf", fillcolor="#ea995e"] ;
564 -> 568 ;
569 [label="inter_time <= -0.555\ngini = 0.346\nsamples = 9\nvalue = [7, 0, 0, 2]\nclass = sjf", fillcolor="#eca572"] ;
568 -> 569 ;
570 [label="gini = 0.0\nsamples = 2\nvalue = [2, 0, 0, 0]\nclass = sjf", fillcolor="#e58139"] ;
569 -> 570 ;
571 [label="inter_time <= -0.428\ngini = 0.408\nsamples = 7\nvalue = [5, 0, 0, 2]\nclass = sjf", fillcolor="#efb388"] ;
569 -> 571 ;
572 [label="requests_byte <= -0.603\ngini = 0.444\nsamples = 3\nvalue = [2, 0, 0, 1]\nclass = sjf", fillcolor="#f2c09c"] ;
571 -> 572 ;
573 [label="gini = 0.0\nsamples = 2\nvalue = [2, 0, 0, 0]\nclass = sjf", fillcolor="#e58139"] ;
572 -> 573 ;
574 [label="gini = 0.0\nsamples = 1\nvalue = [0, 0, 0, 1]\nclass = mlf", fillcolor="#d739e5"] ;
572 -> 574 ;
575 [label="requests_byte <= -0.603\ngini = 0.375\nsamples = 4\nvalue = [3, 0, 0, 1]\nclass = sjf", fillcolor="#eeab7b"] ;
571 -> 575 ;
576 [label="per_request <= -0.587\ngini = 0.5\nsamples = 2\nvalue = [1, 0, 0, 1]\nclass = sjf", fillcolor="#ffffff"] ;
575 -> 576 ;
577 [label="gini = 0.0\nsamples = 1\nvalue = [0, 0, 0, 1]\nclass = mlf", fillcolor="#d739e5"] ;
576 -> 577 ;
578 [label="gini = 0.0\nsamples = 1\nvalue = [1, 0, 0, 0]\nclass = sjf", fillcolor="#e58139"] ;
576 -> 578 ;
579 [label="gini = 0.0\nsamples = 2\nvalue = [2, 0, 0, 0]\nclass = sjf", fillcolor="#e58139"] ;
575 -> 579 ;
580 [label="per_request <= -0.587\ngini = 0.198\nsamples = 9\nvalue = [8, 0, 1, 0]\nclass = sjf", fillcolor="#e89152"] ;
568 -> 580 ;
581 [label="requests_byte <= 0.95\ngini = 0.32\nsamples = 5\nvalue = [4, 0, 1, 0]\nclass = sjf", fillcolor="#eca06a"] ;
580 -> 581 ;
582 [label="inter_time <= -0.555\ngini = 0.444\nsamples = 3\nvalue = [2, 0, 1, 0]\nclass = sjf", fillcolor="#f2c09c"] ;
581 -> 582 ;
583 [label="gini = 0.0\nsamples = 1\nvalue = [1, 0, 0, 0]\nclass = sjf", fillcolor="#e58139"] ;
582 -> 583 ;
584 [label="inter_time <= -0.428\ngini = 0.5\nsamples = 2\nvalue = [1, 0, 1, 0]\nclass = sjf", fillcolor="#ffffff"] ;
582 -> 584 ;
585 [label="gini = 0.0\nsamples = 1\nvalue = [0, 0, 1, 0]\nclass = twins", fillcolor="#399de5"] ;
584 -> 585 ;
586 [label="gini = 0.0\nsamples = 1\nvalue = [1, 0, 0, 0]\nclass = sjf", fillcolor="#e58139"] ;
584 -> 586 ;
587 [label="gini = 0.0\nsamples = 2\nvalue = [2, 0, 0, 0]\nclass = sjf", fillcolor="#e58139"] ;
581 -> 587 ;
588 [label="gini = 0.0\nsamples = 4\nvalue = [4, 0, 0, 0]\nclass = sjf", fillcolor="#e58139"] ;
580 -> 588 ;
589 [label="sequential <= -1.061\ngini = 0.117\nsamples = 147\nvalue = [138, 3, 1, 5]\nclass = sjf", fillcolor="#e78946"] ;
489 -> 589 ;
590 [label="inter_time <= -0.428\ngini = 0.287\nsamples = 31\nvalue = [26, 2, 1, 2]\nclass = sjf", fillcolor="#e9975b"] ;
589 -> 590 ;
591 [label="requests_byte <= -0.292\ngini = 0.163\nsamples = 23\nvalue = [21, 1, 1, 0]\nclass = sjf", fillcolor="#e78c4b"] ;
590 -> 591 ;
592 [label="requests_byte <= -0.603\ngini = 0.292\nsamples = 12\nvalue = [10, 1, 1, 0]\nclass = sjf", fillcolor="#ea985d"] ;
591 -> 592 ;
593 [label="per_request <= 1.063\ngini = 0.219\nsamples = 8\nvalue = [7, 1, 0, 0]\nclass = sjf", fillcolor="#e99355"] ;
592 -> 593 ;
594 [label="gini = 0.0\nsamples = 4\nvalue = [4, 0, 0, 0]\nclass = sjf", fillcolor="#e58139"] ;
593 -> 594 ;
595 [label="requests_byte <= -0.68\ngini = 0.375\nsamples = 4\nvalue = [3, 1, 0, 0]\nclass = sjf", fillcolor="#eeab7b"] ;
593 -> 595 ;
596 [label="gini = 0.0\nsamples = 2\nvalue = [2, 0, 0, 0]\nclass = sjf", fillcolor="#e58139"] ;
595 -> 596 ;
597 [label="inter_time <= -0.567\ngini = 0.5\nsamples = 2\nvalue = [1, 1, 0, 0]\nclass = sjf", fillcolor="#ffffff"] ;
595 -> 597 ;
598 [label="gini = 0.0\nsamples = 1\nvalue = [1, 0, 0, 0]\nclass = sjf", fillcolor="#e58139"] ;
597 -> 598 ;
599 [label="gini = 0.0\nsamples = 1\nvalue = [0, 1, 0, 0]\nclass = to", fillcolor="#47e539"] ;
597 -> 599 ;
600 [label="inter_time <= -0.567\ngini = 0.375\nsamples = 4\nvalue = [3, 0, 1, 0]\nclass = sjf", fillcolor="#eeab7b"] ;
592 -> 600 ;
601 [label="gini = 0.0\nsamples = 1\nvalue = [0, 0, 1, 0]\nclass = twins", fillcolor="#399de5"] ;
600 -> 601 ;
602 [label="gini = 0.0\nsamples = 3\nvalue = [3, 0, 0, 0]\nclass = sjf", fillcolor="#e58139"] ;
600 -> 602 ;
603 [label="gini = 0.0\nsamples = 11\nvalue = [11, 0, 0, 0]\nclass = sjf", fillcolor="#e58139"] ;
591 -> 603 ;
604 [label="requests_byte <= -0.603\ngini = 0.531\nsamples = 8\nvalue = [5, 1, 0, 2]\nclass = sjf", fillcolor="#f2c09c"] ;
590 -> 604 ;
605 [label="per_request <= 1.063\ngini = 0.444\nsamples = 3\nvalue = [1, 0, 0, 2]\nclass = mlf", fillcolor="#eb9cf2"] ;
604 -> 605 ;
606 [label="gini = 0.0\nsamples = 2\nvalue = [0, 0, 0, 2]\nclass = mlf", fillcolor="#d739e5"] ;
605 -> 606 ;
607 [label="gini = 0.0\nsamples = 1\nvalue = [1, 0, 0, 0]\nclass = sjf", fillcolor="#e58139"] ;
605 -> 607 ;
608 [label="per_request <= 1.063\ngini = 0.32\nsamples = 5\nvalue = [4, 1, 0, 0]\nclass = sjf", fillcolor="#eca06a"] ;
604 -> 608 ;
609 [label="gini = 0.0\nsamples = 3\nvalue = [3, 0, 0, 0]\nclass = sjf", fillcolor="#e58139"] ;
608 -> 609 ;
610 [label="requests_byte <= 0.702\ngini = 0.5\nsamples = 2\nvalue = [1, 1, 0, 0]\nclass = sjf", fillcolor="#ffffff"] ;
608 -> 610 ;
611 [label="gini = 0.0\nsamples = 1\nvalue = [0, 1, 0, 0]\nclass = to", fillcolor="#47e539"] ;
610 -> 611 ;
612 [label="gini = 0.0\nsamples = 1\nvalue = [1, 0, 0, 0]\nclass = sjf", fillcolor="#e58139"] ;
610 -> 612 ;
613 [label="inter_time <= -0.555\ngini = 0.067\nsamples = 116\nvalue = [112, 1, 0, 3]\nclass = sjf", fillcolor="#e68540"] ;
589 -> 613 ;
614 [label="requests_byte <= -0.68\ngini = 0.132\nsamples = 57\nvalue = [53, 1, 0, 3]\nclass = sjf", fillcolor="#e78a48"] ;
613 -> 614 ;
615 [label="per_request <= 1.063\ngini = 0.346\nsamples = 9\nvalue = [7, 0, 0, 2]\nclass = sjf", fillcolor="#eca572"] ;
614 -> 615 ;
616 [label="inter_time <= -0.567\ngini = 0.444\nsamples = 3\nvalue = [1, 0, 0, 2]\nclass = mlf", fillcolor="#eb9cf2"] ;
615 -> 616 ;
617 [label="gini = 0.0\nsamples = 1\nvalue = [1, 0, 0, 0]\nclass = sjf", fillcolor="#e58139"] ;
616 -> 617 ;
618 [label="gini = 0.0\nsamples = 2\nvalue = [0, 0, 0, 2]\nclass = mlf", fillcolor="#d739e5"] ;
616 -> 618 ;
619 [label="gini = 0.0\nsamples = 6\nvalue = [6, 0, 0, 0]\nclass = sjf", fillcolor="#e58139"] ;
615 -> 619 ;
620 [label="sequential <= -0.354\ngini = 0.081\nsamples = 48\nvalue = [46, 1, 0, 1]\nclass = sjf", fillcolor="#e68641"] ;
614 -> 620 ;
621 [label="requests_byte <= -0.292\ngini = 0.198\nsamples = 9\nvalue = [8, 1, 0, 0]\nclass = sjf", fillcolor="#e89152"] ;
620 -> 621 ;
622 [label="requests_byte <= -0.603\ngini = 0.375\nsamples = 4\nvalue = [3, 1, 0, 0]\nclass = sjf", fillcolor="#eeab7b"] ;
621 -> 622 ;
623 [label="gini = 0.0\nsamples = 2\nvalue = [2, 0, 0, 0]\nclass = sjf", fillcolor="#e58139"] ;
622 -> 623 ;
624 [label="inter_time <= -0.567\ngini = 0.5\nsamples = 2\nvalue = [1, 1, 0, 0]\nclass = sjf", fillcolor="#ffffff"] ;
622 -> 624 ;
625 [label="gini = 0.0\nsamples = 1\nvalue = [0, 1, 0, 0]\nclass = to", fillcolor="#47e539"] ;
624 -> 625 ;
626 [label="gini = 0.0\nsamples = 1\nvalue = [1, 0, 0, 0]\nclass = sjf", fillcolor="#e58139"] ;
624 -> 626 ;
627 [label="gini = 0.0\nsamples = 5\nvalue = [5, 0, 0, 0]\nclass = sjf", fillcolor="#e58139"] ;
621 -> 627 ;
628 [label="sequential <= 1.061\ngini = 0.05\nsamples = 39\nvalue = [38, 0, 0, 1]\nclass = sjf", fillcolor="#e6843e"] ;
620 -> 628 ;
629 [label="gini = 0.0\nsamples = 28\nvalue = [28, 0, 0, 0]\nclass = sjf", fillcolor="#e58139"] ;
628 -> 629 ;
630 [label="per_request <= 1.063\ngini = 0.165\nsamples = 11\nvalue = [10, 0, 0, 1]\nclass = sjf", fillcolor="#e88e4d"] ;
628 -> 630 ;
631 [label="requests_byte <= -0.292\ngini = 0.278\nsamples = 6\nvalue = [5, 0, 0, 1]\nclass = sjf", fillcolor="#ea9a61"] ;
630 -> 631 ;
632 [label="gini = 0.0\nsamples = 3\nvalue = [3, 0, 0, 0]\nclass = sjf", fillcolor="#e58139"] ;
631 -> 632 ;
633 [label="requests_byte <= 0.95\ngini = 0.444\nsamples = 3\nvalue = [2, 0, 0, 1]\nclass = sjf", fillcolor="#f2c09c"] ;
631 -> 633 ;
634 [label="gini = 0.0\nsamples = 1\nvalue = [0, 0, 0, 1]\nclass = mlf", fillcolor="#d739e5"] ;
633 -> 634 ;
635 [label="gini = 0.0\nsamples = 2\nvalue = [2, 0, 0, 0]\nclass = sjf", fillcolor="#e58139"] ;
633 -> 635 ;
636 [label="gini = 0.0\nsamples = 5\nvalue = [5, 0, 0, 0]\nclass = sjf", fillcolor="#e58139"] ;
630 -> 636 ;
637 [label="gini = 0.0\nsamples = 59\nvalue = [59, 0, 0, 0]\nclass = sjf", fillcolor="#e58139"] ;
613 -> 637 ;
638 [label="file <= -1.065\ngini = 0.496\nsamples = 440\nvalue = [286, 124, 16, 14]\nclass = sjf", fillcolor="#f2be99"] ;
0 -> 638 [labeldistance=2.5, labelangle=-45, headlabel="False"] ;
639 [label="per_request <= -0.037\ngini = 0.531\nsamples = 91\nvalue = [34, 52, 5, 0]\nclass = to", fillcolor="#c5f7c0"] ;
638 -> 639 ;
640 [label="sequential <= 0.354\ngini = 0.575\nsamples = 54\nvalue = [27, 22, 5, 0]\nclass = sjf", fillcolor="#fbebe0"] ;
639 -> 640 ;
641 [label="per_request <= -0.587\ngini = 0.518\nsamples = 30\nvalue = [12, 17, 1, 0]\nclass = to", fillcolor="#ccf8c8"] ;
640 -> 641 ;
642 [label="requests_byte <= -0.68\ngini = 0.485\nsamples = 20\nvalue = [6, 13, 1, 0]\nclass = to", fillcolor="#a3f29c"] ;
641 -> 642 ;
643 [label="gini = 0.0\nsamples = 5\nvalue = [0, 5, 0, 0]\nclass = to", fillcolor="#47e539"] ;
642 -> 643 ;
644 [label="sequential <= -0.354\ngini = 0.551\nsamples = 15\nvalue = [6, 8, 1, 0]\nclass = to", fillcolor="#d6f9d3"] ;
642 -> 644 ;
645 [label="per_request <= -0.862\ngini = 0.512\nsamples = 11\nvalue = [3, 7, 1, 0]\nclass = to", fillcolor="#a3f29c"] ;
644 -> 645 ;
646 [label="requests_byte <= 0.95\ngini = 0.625\nsamples = 4\nvalue = [1, 2, 1, 0]\nclass = to", fillcolor="#c2f6bd"] ;
645 -> 646 ;
647 [label="requests_byte <= -0.603\ngini = 0.444\nsamples = 3\nvalue = [0, 2, 1, 0]\nclass = to", fillcolor="#a3f29c"] ;
646 -> 647 ;
648 [label="gini = 0.0\nsamples = 1\nvalue = [0, 1, 0, 0]\nclass = to", fillcolor="#47e539"] ;
647 -> 648 ;
649 [label="requests_byte <= -0.292\ngini = 0.5\nsamples = 2\nvalue = [0, 1, 1, 0]\nclass = to", fillcolor="#ffffff"] ;
647 -> 649 ;
650 [label="gini = 0.0\nsamples = 1\nvalue = [0, 0, 1, 0]\nclass = twins", fillcolor="#399de5"] ;
649 -> 650 ;
651 [label="gini = 0.0\nsamples = 1\nvalue = [0, 1, 0, 0]\nclass = to", fillcolor="#47e539"] ;
649 -> 651 ;
652 [label="gini = 0.0\nsamples = 1\nvalue = [1, 0, 0, 0]\nclass = sjf", fillcolor="#e58139"] ;
646 -> 652 ;
653 [label="requests_byte <= -0.603\ngini = 0.408\nsamples = 7\nvalue = [2, 5, 0, 0]\nclass = to", fillcolor="#91ef88"] ;
645 -> 653 ;
654 [label="sequential <= -1.061\ngini = 0.5\nsamples = 2\nvalue = [1, 1, 0, 0]\nclass = sjf", fillcolor="#ffffff"] ;
653 -> 654 ;
655 [label="gini = 0.0\nsamples = 1\nvalue = [1, 0, 0, 0]\nclass = sjf", fillcolor="#e58139"] ;
654 -> 655 ;
656 [label="gini = 0.0\nsamples = 1\nvalue = [0, 1, 0, 0]\nclass = to", fillcolor="#47e539"] ;
654 -> 656 ;
657 [label="requests_byte <= -0.292\ngini = 0.32\nsamples = 5\nvalue = [1, 4, 0, 0]\nclass = to", fillcolor="#75ec6a"] ;
653 -> 657 ;
658 [label="gini = 0.0\nsamples = 2\nvalue = [0, 2, 0, 0]\nclass = to", fillcolor="#47e539"] ;
657 -> 658 ;
659 [label="requests_byte <= 0.95\ngini = 0.444\nsamples = 3\nvalue = [1, 2, 0, 0]\nclass = to", fillcolor="#a3f29c"] ;
657 -> 659 ;
660 [label="sequential <= -1.061\ngini = 0.5\nsamples = 2\nvalue = [1, 1, 0, 0]\nclass = sjf", fillcolor="#ffffff"] ;
659 -> 660 ;
661 [label="gini = 0.0\nsamples = 1\nvalue = [0, 1, 0, 0]\nclass = to", fillcolor="#47e539"] ;
660 -> 661 ;
662 [label="gini = 0.0\nsamples = 1\nvalue = [1, 0, 0, 0]\nclass = sjf", fillcolor="#e58139"] ;
660 -> 662 ;
663 [label="gini = 0.0\nsamples = 1\nvalue = [0, 1, 0, 0]\nclass = to", fillcolor="#47e539"] ;
659 -> 663 ;
664 [label="requests_byte <= 0.702\ngini = 0.375\nsamples = 4\nvalue = [3, 1, 0, 0]\nclass = sjf", fillcolor="#eeab7b"] ;
644 -> 664 ;
665 [label="gini = 0.0\nsamples = 2\nvalue = [2, 0, 0, 0]\nclass = sjf", fillcolor="#e58139"] ;
664 -> 665 ;
666 [label="per_request <= -0.862\ngini = 0.5\nsamples = 2\nvalue = [1, 1, 0, 0]\nclass = sjf", fillcolor="#ffffff"] ;
664 -> 666 ;
667 [label="gini = 0.0\nsamples = 1\nvalue = [0, 1, 0, 0]\nclass = to", fillcolor="#47e539"] ;
666 -> 667 ;
668 [label="gini = 0.0\nsamples = 1\nvalue = [1, 0, 0, 0]\nclass = sjf", fillcolor="#e58139"] ;
666 -> 668 ;
669 [label="requests_byte <= -0.68\ngini = 0.48\nsamples = 10\nvalue = [6, 4, 0, 0]\nclass = sjf", fillcolor="#f6d5bd"] ;
641 -> 669 ;
670 [label="gini = 0.0\nsamples = 3\nvalue = [3, 0, 0, 0]\nclass = sjf", fillcolor="#e58139"] ;
669 -> 670 ;
671 [label="requests_byte <= -0.292\ngini = 0.49\nsamples = 7\nvalue = [3, 4, 0, 0]\nclass = to", fillcolor="#d1f8ce"] ;
669 -> 671 ;
672 [label="gini = 0.0\nsamples = 3\nvalue = [0, 3, 0, 0]\nclass = to", fillcolor="#47e539"] ;
671 -> 672 ;
673 [label="sequential <= -1.061\ngini = 0.375\nsamples = 4\nvalue = [3, 1, 0, 0]\nclass = sjf", fillcolor="#eeab7b"] ;
671 -> 673 ;
674 [label="gini = 0.0\nsamples = 1\nvalue = [0, 1, 0, 0]\nclass = to", fillcolor="#47e539"] ;
673 -> 674 ;
675 [label="gini = 0.0\nsamples = 3\nvalue = [3, 0, 0, 0]\nclass = sjf", fillcolor="#e58139"] ;
673 -> 675 ;
676 [label="per_request <= -0.587\ngini = 0.538\nsamples = 24\nvalue = [15, 5, 4, 0]\nclass = sjf", fillcolor="#f1bd97"] ;
640 -> 676 ;
677 [label="per_request <= -0.862\ngini = 0.64\nsamples = 15\nvalue = [7, 4, 4, 0]\nclass = sjf", fillcolor="#f8ddc9"] ;
676 -> 677 ;
678 [label="requests_byte <= -0.68\ngini = 0.531\nsamples = 8\nvalue = [5, 1, 2, 0]\nclass = sjf", fillcolor="#f2c09c"] ;
677 -> 678 ;
679 [label="sequential <= 1.061\ngini = 0.5\nsamples = 2\nvalue = [1, 0, 1, 0]\nclass = sjf", fillcolor="#ffffff"] ;
678 -> 679 ;
680 [label="gini = 0.0\nsamples = 1\nvalue = [0, 0, 1, 0]\nclass = twins", fillcolor="#399de5"] ;
679 -> 680 ;
681 [label="gini = 0.0\nsamples = 1\nvalue = [1, 0, 0, 0]\nclass = sjf", fillcolor="#e58139"] ;
679 -> 681 ;
682 [label="sequential <= 1.061\ngini = 0.5\nsamples = 6\nvalue = [4, 1, 1, 0]\nclass = sjf", fillcolor="#efb388"] ;
678 -> 682 ;
683 [label="gini = 0.0\nsamples = 3\nvalue = [3, 0, 0, 0]\nclass = sjf", fillcolor="#e58139"] ;
682 -> 683 ;
684 [label="requests_byte <= -0.603\ngini = 0.667\nsamples = 3\nvalue = [1, 1, 1, 0]\nclass = sjf", fillcolor="#ffffff"] ;
682 -> 684 ;
685 [label="gini = 0.0\nsamples = 1\nvalue = [0, 1, 0, 0]\nclass = to", fillcolor="#47e539"] ;
684 -> 685 ;
686 [label="requests_byte <= 0.702\ngini = 0.5\nsamples = 2\nvalue = [1, 0, 1, 0]\nclass = sjf", fillcolor="#ffffff"] ;
684 -> 686 ;
687 [label="gini = 0.0\nsamples = 1\nvalue = [1, 0, 0, 0]\nclass = sjf", fillcolor="#e58139"] ;
686 -> 687 ;
688 [label="gini = 0.0\nsamples = 1\nvalue = [0, 0, 1, 0]\nclass = twins", fillcolor="#399de5"] ;
686 -> 688 ;
689 [label="requests_byte <= -0.68\ngini = 0.653\nsamples = 7\nvalue = [2, 3, 2, 0]\nclass = to", fillcolor="#dafad7"] ;
677 -> 689 ;
690 [label="gini = 0.0\nsamples = 2\nvalue = [0, 2, 0, 0]\nclass = to", fillcolor="#47e539"] ;
689 -> 690 ;
691 [label="sequential <= 1.061\ngini = 0.64\nsamples = 5\nvalue = [2, 1, 2, 0]\nclass = sjf", fillcolor="#ffffff"] ;
689 -> 691 ;
692 [label="requests_byte <= -0.292\ngini = 0.5\nsamples = 2\nvalue = [0, 1, 1, 0]\nclass = to", fillcolor="#ffffff"] ;
691 -> 692 ;
693 [label="gini = 0.0\nsamples = 1\nvalue = [0, 1, 0, 0]\nclass = to", fillcolor="#47e539"] ;
692 -> 693 ;
694 [label="gini = 0.0\nsamples = 1\nvalue = [0, 0, 1, 0]\nclass = twins", fillcolor="#399de5"] ;
692 -> 694 ;
695 [label="requests_byte <= -0.603\ngini = 0.444\nsamples = 3\nvalue = [2, 0, 1, 0]\nclass = sjf", fillcolor="#f2c09c"] ;
691 -> 695 ;
696 [label="gini = 0.0\nsamples = 1\nvalue = [1, 0, 0, 0]\nclass = sjf", fillcolor="#e58139"] ;
695 -> 696 ;
697 [label="requests_byte <= -0.292\ngini = 0.5\nsamples = 2\nvalue = [1, 0, 1, 0]\nclass = sjf", fillcolor="#ffffff"] ;
695 -> 697 ;
698 [label="gini = 0.0\nsamples = 1\nvalue = [0, 0, 1, 0]\nclass = twins", fillcolor="#399de5"] ;
697 -> 698 ;
699 [label="gini = 0.0\nsamples = 1\nvalue = [1, 0, 0, 0]\nclass = sjf", fillcolor="#e58139"] ;
697 -> 699 ;
700 [label="requests_byte <= -0.68\ngini = 0.198\nsamples = 9\nvalue = [8, 1, 0, 0]\nclass = sjf", fillcolor="#e89152"] ;
676 -> 700 ;
701 [label="sequential <= 1.061\ngini = 0.5\nsamples = 2\nvalue = [1, 1, 0, 0]\nclass = sjf", fillcolor="#ffffff"] ;
700 -> 701 ;
702 [label="gini = 0.0\nsamples = 1\nvalue = [1, 0, 0, 0]\nclass = sjf", fillcolor="#e58139"] ;
701 -> 702 ;
703 [label="gini = 0.0\nsamples = 1\nvalue = [0, 1, 0, 0]\nclass = to", fillcolor="#47e539"] ;
701 -> 703 ;
704 [label="gini = 0.0\nsamples = 7\nvalue = [7, 0, 0, 0]\nclass = sjf", fillcolor="#e58139"] ;
700 -> 704 ;
705 [label="requests_byte <= -0.292\ngini = 0.307\nsamples = 37\nvalue = [7, 30, 0, 0]\nclass = to", fillcolor="#72eb67"] ;
639 -> 705 ;
706 [label="gini = 0.0\nsamples = 22\nvalue = [0, 22, 0, 0]\nclass = to", fillcolor="#47e539"] ;
705 -> 706 ;
707 [label="sequential <= 0.354\ngini = 0.498\nsamples = 15\nvalue = [7, 8, 0, 0]\nclass = to", fillcolor="#e8fce6"] ;
705 -> 707 ;
708 [label="requests_byte <= 0.95\ngini = 0.444\nsamples = 9\nvalue = [6, 3, 0, 0]\nclass = sjf", fillcolor="#f2c09c"] ;
707 -> 708 ;
709 [label="sequential <= -1.061\ngini = 0.48\nsamples = 5\nvalue = [2, 3, 0, 0]\nclass = to", fillcolor="#c2f6bd"] ;
708 -> 709 ;
710 [label="gini = 0.0\nsamples = 2\nvalue = [0, 2, 0, 0]\nclass = to", fillcolor="#47e539"] ;
709 -> 710 ;
711 [label="per_request <= 1.063\ngini = 0.444\nsamples = 3\nvalue = [2, 1, 0, 0]\nclass = sjf", fillcolor="#f2c09c"] ;
709 -> 711 ;
712 [label="gini = 0.0\nsamples = 1\nvalue = [0, 1, 0, 0]\nclass = to", fillcolor="#47e539"] ;
711 -> 712 ;
713 [label="gini = 0.0\nsamples = 2\nvalue = [2, 0, 0, 0]\nclass = sjf", fillcolor="#e58139"] ;
711 -> 713 ;
714 [label="gini = 0.0\nsamples = 4\nvalue = [4, 0, 0, 0]\nclass = sjf", fillcolor="#e58139"] ;
708 -> 714 ;
715 [label="per_request <= 1.063\ngini = 0.278\nsamples = 6\nvalue = [1, 5, 0, 0]\nclass = to", fillcolor="#6cea61"] ;
707 -> 715 ;
716 [label="requests_byte <= 0.95\ngini = 0.444\nsamples = 3\nvalue = [1, 2, 0, 0]\nclass = to", fillcolor="#a3f29c"] ;
715 -> 716 ;
717 [label="sequential <= 1.061\ngini = 0.5\nsamples = 2\nvalue = [1, 1, 0, 0]\nclass = sjf", fillcolor="#ffffff"] ;
716 -> 717 ;
718 [label="gini = 0.0\nsamples = 1\nvalue = [0, 1, 0, 0]\nclass = to", fillcolor="#47e539"] ;
717 -> 718 ;
719 [label="gini = 0.0\nsamples = 1\nvalue = [1, 0, 0, 0]\nclass = sjf", fillcolor="#e58139"] ;
717 -> 719 ;
720 [label="gini = 0.0\nsamples = 1\nvalue = [0, 1, 0, 0]\nclass = to", fillcolor="#47e539"] ;
716 -> 720 ;
721 [label="gini = 0.0\nsamples = 3\nvalue = [0, 3, 0, 0]\nclass = to", fillcolor="#47e539"] ;
715 -> 721 ;
722 [label="per_request <= 1.063\ngini = 0.433\nsamples = 349\nvalue = [252, 72, 11, 14]\nclass = sjf", fillcolor="#eead7e"] ;
638 -> 722 ;
723 [label="file <= 1.065\ngini = 0.394\nsamples = 281\nvalue = [214, 42, 11, 14]\nclass = sjf", fillcolor="#eca471"] ;
722 -> 723 ;
724 [label="per_request <= -0.587\ngini = 0.318\nsamples = 206\nvalue = [167, 32, 6, 1]\nclass = sjf", fillcolor="#eb9d65"] ;
723 -> 724 ;
725 [label="requests_byte <= -0.68\ngini = 0.384\nsamples = 102\nvalue = [78, 17, 6, 1]\nclass = sjf", fillcolor="#eca571"] ;
724 -> 725 ;
726 [label="sequential <= -1.061\ngini = 0.543\nsamples = 19\nvalue = [12, 4, 2, 1]\nclass = sjf", fillcolor="#f1bc95"] ;
725 -> 726 ;
727 [label="file <= -0.456\ngini = 0.375\nsamples = 4\nvalue = [3, 0, 0, 1]\nclass = sjf", fillcolor="#eeab7b"] ;
726 -> 727 ;
728 [label="gini = 0.0\nsamples = 2\nvalue = [2, 0, 0, 0]\nclass = sjf", fillcolor="#e58139"] ;
727 -> 728 ;
729 [label="per_request <= -0.862\ngini = 0.5\nsamples = 2\nvalue = [1, 0, 0, 1]\nclass = sjf", fillcolor="#ffffff"] ;
727 -> 729 ;
730 [label="gini = 0.0\nsamples = 1\nvalue = [0, 0, 0, 1]\nclass = mlf", fillcolor="#d739e5"] ;
729 -> 730 ;
731 [label="gini = 0.0\nsamples = 1\nvalue = [1, 0, 0, 0]\nclass = sjf", fillcolor="#e58139"] ;
729 -> 731 ;
732 [label="sequential <= -0.354\ngini = 0.551\nsamples = 15\nvalue = [9, 4, 2, 0]\nclass = sjf", fillcolor="#f3c6a5"] ;
726 -> 732 ;
733 [label="per_request <= -0.862\ngini = 0.444\nsamples = 3\nvalue = [1, 2, 0, 0]\nclass = to", fillcolor="#a3f29c"] ;
732 -> 733 ;
734 [label="gini = 0.0\nsamples = 2\nvalue = [0, 2, 0, 0]\nclass = to", fillcolor="#47e539"] ;
733 -> 734 ;
735 [label="gini = 0.0\nsamples = 1\nvalue = [1, 0, 0, 0]\nclass = sjf", fillcolor="#e58139"] ;
733 -> 735 ;
736 [label="per_request <= -0.862\ngini = 0.5\nsamples = 12\nvalue = [8, 2, 2, 0]\nclass = sjf", fillcolor="#efb388"] ;
732 -> 736 ;
737 [label="file <= -0.456\ngini = 0.278\nsamples = 6\nvalue = [5, 1, 0, 0]\nclass = sjf", fillcolor="#ea9a61"] ;
736 -> 737 ;
738 [label="sequential <= 0.354\ngini = 0.5\nsamples = 2\nvalue = [1, 1, 0, 0]\nclass = sjf", fillcolor="#ffffff"] ;
737 -> 738 ;
739 [label="gini = 0.0\nsamples = 1\nvalue = [0, 1, 0, 0]\nclass = to", fillcolor="#47e539"] ;
738 -> 739 ;
740 [label="gini = 0.0\nsamples = 1\nvalue = [1, 0, 0, 0]\nclass = sjf", fillcolor="#e58139"] ;
738 -> 740 ;
741 [label="gini = 0.0\nsamples = 4\nvalue = [4, 0, 0, 0]\nclass = sjf", fillcolor="#e58139"] ;
737 -> 741 ;
742 [label="sequential <= 1.061\ngini = 0.611\nsamples = 6\nvalue = [3, 1, 2, 0]\nclass = sjf", fillcolor="#f8e0ce"] ;
736 -> 742 ;
743 [label="file <= -0.456\ngini = 0.444\nsamples = 3\nvalue = [2, 0, 1, 0]\nclass = sjf", fillcolor="#f2c09c"] ;
742 -> 743 ;
744 [label="gini = 0.0\nsamples = 1\nvalue = [0, 0, 1, 0]\nclass = twins", fillcolor="#399de5"] ;
743 -> 744 ;
745 [label="gini = 0.0\nsamples = 2\nvalue = [2, 0, 0, 0]\nclass = sjf", fillcolor="#e58139"] ;
743 -> 745 ;
746 [label="file <= -0.456\ngini = 0.667\nsamples = 3\nvalue = [1, 1, 1, 0]\nclass = sjf", fillcolor="#ffffff"] ;
742 -> 746 ;
747 [label="gini = 0.0\nsamples = 1\nvalue = [1, 0, 0, 0]\nclass = sjf", fillcolor="#e58139"] ;
746 -> 747 ;
748 [label="file <= 0.304\ngini = 0.5\nsamples = 2\nvalue = [0, 1, 1, 0]\nclass = to", fillcolor="#ffffff"] ;
746 -> 748 ;
749 [label="gini = 0.0\nsamples = 1\nvalue = [0, 1, 0, 0]\nclass = to", fillcolor="#47e539"] ;
748 -> 749 ;
750 [label="gini = 0.0\nsamples = 1\nvalue = [0, 0, 1, 0]\nclass = twins", fillcolor="#399de5"] ;
748 -> 750 ;
751 [label="file <= 0.304\ngini = 0.341\nsamples = 83\nvalue = [66, 13, 4, 0]\nclass = sjf", fillcolor="#eba069"] ;
725 -> 751 ;
752 [label="per_request <= -0.862\ngini = 0.286\nsamples = 55\nvalue = [46, 6, 3, 0]\nclass = sjf", fillcolor="#ea985d"] ;
751 -> 752 ;
753 [label="file <= -0.456\ngini = 0.386\nsamples = 34\nvalue = [26, 5, 3, 0]\nclass = sjf", fillcolor="#eca470"] ;
752 -> 753 ;
754 [label="sequential <= -0.354\ngini = 0.531\nsamples = 16\nvalue = [10, 4, 2, 0]\nclass = sjf", fillcolor="#f2c09c"] ;
753 -> 754 ;
755 [label="sequential <= -1.061\ngini = 0.64\nsamples = 5\nvalue = [2, 1, 2, 0]\nclass = sjf", fillcolor="#ffffff"] ;
754 -> 755 ;
756 [label="requests_byte <= 0.95\ngini = 0.444\nsamples = 3\nvalue = [2, 0, 1, 0]\nclass = sjf", fillcolor="#f2c09c"] ;
755 -> 756 ;
757 [label="gini = 0.0\nsamples = 2\nvalue = [2, 0, 0, 0]\nclass = sjf", fillcolor="#e58139"] ;
756 -> 757 ;
758 [label="gini = 0.0\nsamples = 1\nvalue = [0, 0, 1, 0]\nclass = twins", fillcolor="#399de5"] ;
756 -> 758 ;
759 [label="requests_byte <= -0.603\ngini = 0.5\nsamples = 2\nvalue = [0, 1, 1, 0]\nclass = to", fillcolor="#ffffff"] ;
755 -> 759 ;
760 [label="gini = 0.0\nsamples = 1\nvalue = [0, 0, 1, 0]\nclass = twins", fillcolor="#399de5"] ;
759 -> 760 ;
761 [label="gini = 0.0\nsamples = 1\nvalue = [0, 1, 0, 0]\nclass = to", fillcolor="#47e539"] ;
759 -> 761 ;
762 [label="requests_byte <= -0.603\ngini = 0.397\nsamples = 11\nvalue = [8, 3, 0, 0]\nclass = sjf", fillcolor="#efb083"] ;
754 -> 762 ;
763 [label="gini = 0.0\nsamples = 3\nvalue = [3, 0, 0, 0]\nclass = sjf", fillcolor="#e58139"] ;
762 -> 763 ;
764 [label="requests_byte <= -0.292\ngini = 0.469\nsamples = 8\nvalue = [5, 3, 0, 0]\nclass = sjf", fillcolor="#f5cdb0"] ;
762 -> 764 ;
765 [label="sequential <= 0.707\ngini = 0.5\nsamples = 2\nvalue = [1, 1, 0, 0]\nclass = sjf", fillcolor="#ffffff"] ;
764 -> 765 ;
766 [label="gini = 0.0\nsamples = 1\nvalue = [0, 1, 0, 0]\nclass = to", fillcolor="#47e539"] ;
765 -> 766 ;
767 [label="gini = 0.0\nsamples = 1\nvalue = [1, 0, 0, 0]\nclass = sjf", fillcolor="#e58139"] ;
765 -> 767 ;
768 [label="sequential <= 0.354\ngini = 0.444\nsamples = 6\nvalue = [4, 2, 0, 0]\nclass = sjf", fillcolor="#f2c09c"] ;
764 -> 768 ;
769 [label="gini = 0.0\nsamples = 2\nvalue = [2, 0, 0, 0]\nclass = sjf", fillcolor="#e58139"] ;
768 -> 769 ;
770 [label="requests_byte <= 0.95\ngini = 0.5\nsamples = 4\nvalue = [2, 2, 0, 0]\nclass = sjf", fillcolor="#ffffff"] ;
768 -> 770 ;
771 [label="sequential <= 1.061\ngini = 0.5\nsamples = 2\nvalue = [1, 1, 0, 0]\nclass = sjf", fillcolor="#ffffff"] ;
770 -> 771 ;
772 [label="gini = 0.0\nsamples = 1\nvalue = [0, 1, 0, 0]\nclass = to", fillcolor="#47e539"] ;
771 -> 772 ;
773 [label="gini = 0.0\nsamples = 1\nvalue = [1, 0, 0, 0]\nclass = sjf", fillcolor="#e58139"] ;
771 -> 773 ;
774 [label="sequential <= 1.061\ngini = 0.5\nsamples = 2\nvalue = [1, 1, 0, 0]\nclass = sjf", fillcolor="#ffffff"] ;
770 -> 774 ;
775 [label="gini = 0.0\nsamples = 1\nvalue = [1, 0, 0, 0]\nclass = sjf", fillcolor="#e58139"] ;
774 -> 775 ;
776 [label="gini = 0.0\nsamples = 1\nvalue = [0, 1, 0, 0]\nclass = to", fillcolor="#47e539"] ;
774 -> 776 ;
777 [label="sequential <= 0.354\ngini = 0.204\nsamples = 18\nvalue = [16, 1, 1, 0]\nclass = sjf", fillcolor="#e89050"] ;
753 -> 777 ;
778 [label="gini = 0.0\nsamples = 11\nvalue = [11, 0, 0, 0]\nclass = sjf", fillcolor="#e58139"] ;
777 -> 778 ;
779 [label="requests_byte <= -0.292\ngini = 0.449\nsamples = 7\nvalue = [5, 1, 1, 0]\nclass = sjf", fillcolor="#eeab7b"] ;
777 -> 779 ;
780 [label="sequential <= 1.061\ngini = 0.625\nsamples = 4\nvalue = [2, 1, 1, 0]\nclass = sjf", fillcolor="#f6d5bd"] ;
779 -> 780 ;
781 [label="requests_byte <= -0.603\ngini = 0.5\nsamples = 2\nvalue = [1, 0, 1, 0]\nclass = sjf", fillcolor="#ffffff"] ;
780 -> 781 ;
782 [label="gini = 0.0\nsamples = 1\nvalue = [0, 0, 1, 0]\nclass = twins", fillcolor="#399de5"] ;
781 -> 782 ;
783 [label="gini = 0.0\nsamples = 1\nvalue = [1, 0, 0, 0]\nclass = sjf", fillcolor="#e58139"] ;
781 -> 783 ;
784 [label="requests_byte <= -0.603\ngini = 0.5\nsamples = 2\nvalue = [1, 1, 0, 0]\nclass = sjf", fillcolor="#ffffff"] ;
780 -> 784 ;
785 [label="gini = 0.0\nsamples = 1\nvalue = [1, 0, 0, 0]\nclass = sjf", fillcolor="#e58139"] ;
784 -> 785 ;
786 [label="gini = 0.0\nsamples = 1\nvalue = [0, 1, 0, 0]\nclass = to", fillcolor="#47e539"] ;
784 -> 786 ;
787 [label="gini = 0.0\nsamples = 3\nvalue = [3, 0, 0, 0]\nclass = sjf", fillcolor="#e58139"] ;
779 -> 787 ;
788 [label="requests_byte <= 0.95\ngini = 0.091\nsamples = 21\nvalue = [20, 1, 0, 0]\nclass = sjf", fillcolor="#e68743"] ;
752 -> 788 ;
789 [label="gini = 0.0\nsamples = 15\nvalue = [15, 0, 0, 0]\nclass = sjf", fillcolor="#e58139"] ;
788 -> 789 ;
790 [label="file <= -0.456\ngini = 0.278\nsamples = 6\nvalue = [5, 1, 0, 0]\nclass = sjf", fillcolor="#ea9a61"] ;
788 -> 790 ;
791 [label="gini = 0.0\nsamples = 3\nvalue = [3, 0, 0, 0]\nclass = sjf", fillcolor="#e58139"] ;
790 -> 791 ;
792 [label="sequential <= -0.354\ngini = 0.444\nsamples = 3\nvalue = [2, 1, 0, 0]\nclass = sjf", fillcolor="#f2c09c"] ;
790 -> 792 ;
793 [label="gini = 0.0\nsamples = 1\nvalue = [1, 0, 0, 0]\nclass = sjf", fillcolor="#e58139"] ;
792 -> 793 ;
794 [label="sequential <= 0.354\ngini = 0.5\nsamples = 2\nvalue = [1, 1, 0, 0]\nclass = sjf", fillcolor="#ffffff"] ;
792 -> 794 ;
795 [label="gini = 0.0\nsamples = 1\nvalue = [0, 1, 0, 0]\nclass = to", fillcolor="#47e539"] ;
794 -> 795 ;
796 [label="gini = 0.0\nsamples = 1\nvalue = [1, 0, 0, 0]\nclass = sjf", fillcolor="#e58139"] ;
794 -> 796 ;
797 [label="sequential <= -1.061\ngini = 0.426\nsamples = 28\nvalue = [20, 7, 1, 0]\nclass = sjf", fillcolor="#efb184"] ;
751 -> 797 ;
798 [label="requests_byte <= 0.95\ngini = 0.49\nsamples = 7\nvalue = [4, 3, 0, 0]\nclass = sjf", fillcolor="#f8e0ce"] ;
797 -> 798 ;
799 [label="requests_byte <= -0.292\ngini = 0.48\nsamples = 5\nvalue = [2, 3, 0, 0]\nclass = to", fillcolor="#c2f6bd"] ;
798 -> 799 ;
800 [label="per_request <= -0.862\ngini = 0.444\nsamples = 3\nvalue = [2, 1, 0, 0]\nclass = sjf", fillcolor="#f2c09c"] ;
799 -> 800 ;
801 [label="gini = 0.0\nsamples = 1\nvalue = [1, 0, 0, 0]\nclass = sjf", fillcolor="#e58139"] ;
800 -> 801 ;
802 [label="requests_byte <= -0.603\ngini = 0.5\nsamples = 2\nvalue = [1, 1, 0, 0]\nclass = sjf", fillcolor="#ffffff"] ;
800 -> 802 ;
803 [label="gini = 0.0\nsamples = 1\nvalue = [0, 1, 0, 0]\nclass = to", fillcolor="#47e539"] ;
802 -> 803 ;
804 [label="gini = 0.0\nsamples = 1\nvalue = [1, 0, 0, 0]\nclass = sjf", fillcolor="#e58139"] ;
802 -> 804 ;
805 [label="gini = 0.0\nsamples = 2\nvalue = [0, 2, 0, 0]\nclass = to", fillcolor="#47e539"] ;
799 -> 805 ;
806 [label="gini = 0.0\nsamples = 2\nvalue = [2, 0, 0, 0]\nclass = sjf", fillcolor="#e58139"] ;
798 -> 806 ;
807 [label="requests_byte <= -0.603\ngini = 0.381\nsamples = 21\nvalue = [16, 4, 1, 0]\nclass = sjf", fillcolor="#eda673"] ;
797 -> 807 ;
808 [label="gini = 0.0\nsamples = 5\nvalue = [5, 0, 0, 0]\nclass = sjf", fillcolor="#e58139"] ;
807 -> 808 ;
809 [label="sequential <= -0.354\ngini = 0.461\nsamples = 16\nvalue = [11, 4, 1, 0]\nclass = sjf", fillcolor="#f0b68c"] ;
807 -> 809 ;
810 [label="requests_byte <= -0.292\ngini = 0.444\nsamples = 3\nvalue = [2, 0, 1, 0]\nclass = sjf", fillcolor="#f2c09c"] ;
809 -> 810 ;
811 [label="gini = 0.0\nsamples = 1\nvalue = [0, 0, 1, 0]\nclass = twins", fillcolor="#399de5"] ;
810 -> 811 ;
812 [label="gini = 0.0\nsamples = 2\nvalue = [2, 0, 0, 0]\nclass = sjf", fillcolor="#e58139"] ;
810 -> 812 ;
